{"learner":{"attributes":{"scikit_learn":"{\"_estimator_type\": \"regressor\"}"},"feature_names":[],"feature_types":[],"gradient_booster":{"model":{"cats":{"enc":[],"feature_segments":[],"sorted_idx":[]},"gbtree_model_param":{"num_parallel_tree":"1","num_trees":"100"},"iteration_indptr":[0,1,2,3,4,5,6,7,8,9,10,11,12,13,14,15,16,17,18,19,20,21,22,23,24,25,26,27,28,29,30,31,32,33,34,35,36,37,38,39,40,41,42,43,44,45,46,47,48,49,50,51,52,53,54,55,56,57,58,59,60,61,62,63,64,65,66,67,68,69,70,71,72,73,74,75,76,77,78,79,80,81,82,83,84,85,86,87,88,89,90,91,92,93,94,95,96,97,98,99,100],"tree_info":[0,0,0,0,0,0,0,0,0,0,0,0,0,0,0,0,0,0,0,0,0,0,0,0,0,0,0,0,0,0,0,0,0,0,0,0,0,0,0,0,0,0,0,0,0,0,0,0,0,0,0,0,0,0,0,0,0,0,0,0,0,0,0,0,0,0,0,0,0,0,0,0,0,0,0,0,0,0,0,0,0,0,0,0,0,0,0,0,0,0,0,0,0,0,0,0,0,0,0,0],"trees":[{"base_weights":[5.6474622E-2,-2.3387353E0,3.2439377E0,-3.303546E0,-8.7963265E-1,3.997138E0,-9.4340706E-1,1.22000754E-1,-3.8817642E0,-3.3370748E-1,-7.1021543E0,2.835389E0,5.2763166E0,-2.9809964E0,3.8487124E0,-1.7683407E0,3.0751088E0,-2.9036958E0,-5.7165956E0,-1.5401607E0,1.644724E0,-5.2985877E-1,-2.7053509E0,3.4726317E0,-2.8496776E0,6.878095E0,2.3554318E0,-5.0716124E0,-1.8614899E0,2.2373866E-1,2.3087503E-3,-1.5094239E-1,-1.115551E-2,1.8710073E-2,2.0403157E-1,-2.0895873E-1,-6.594237E-2,-3.4672686E-1,-5.979779E-2,8.154607E-3,-1.7066972E-1,1.4822125E-1,-6.620295E-2,-2.2066211E-2,-1.6564593E-1,1.8998447E-1,-1.8949935E-1,-1.7202275E-1,-4.5757804E-2,4.2477092E-1,2.9456747E-1,2.0512858E-2,2.043238E-1,-2.7819487E-1,-7.7561855E-2,-9.914049E-3,-1.5105852E-1],"categories":[],"categories_nodes":[],"categories_segments":[],"categories_sizes":[],"default_left":[0,0,0,0,0,0,0,0,0,0,0,0,0,0,0,0,0,0,0,0,0,0,0,0,0,0,0,0,0,0,0,0,0,0,0,0,0,0,0,0,0,0,0,0,0,0,0,0,0,0,0,0,0,0,0,0,0],"id":0,"left_children":[1,3,5,7,9,11,13,15,17,19,21,23,25,27,29,31,33,35,37,39,41,-1,43,45,47,49,51,53,55,-1,-1,-1,-1,-1,-1,-1,-1,-1,-1,-1,-1,-1,-1,-1,-1,-1,-1,-1,-1,-1,-1,-1,-1,-1,-1,-1,-1],"loss_changes":[2.4735764E3,2.5752917E2,4.4216443E2,2.2033289E2,2.5240732E2,1.6039746E2,2.2628917E2,1.0033834E2,1.5388696E2,1.696151E2,6.353241E1,2.4175293E2,2.411228E2,2.8006592E1,1.6457703E1,2.0582005E1,1.7483788E1,1.2386047E2,1.6789453E2,1.4094269E2,1.09708534E2,0E0,4.040125E0,1.5216785E2,4.8515472E0,5.8066406E0,6.903435E1,3.4194946E-2,2.2546452E1,0E0,0E0,0E0,0E0,0E0,0E0,0E0,0E0,0E0,0E0,0E0,0E0,0E0,0E0,0E0,0E0,0E0,0E0,0E0,0E0,0E0,0E0,0E0,0E0,0E0,0E0,0E0,0E0],"parents":[2147483647,0,0,1,1,2,2,3,3,4,4,5,5,6,6,7,7,8,8,9,9,10,10,11,11,12,12,13,13,14,14,15,15,16,16,17,17,18,18,19,19,20,20,22,22,23,23,24,24,25,25,26,26,27,27,28,28],"right_children":[2,4,6,8,10,12,14,16,18,20,22,24,26,28,30,32,34,36,38,40,42,-1,44,46,48,50,52,54,56,-1,-1,-1,-1,-1,-1,-1,-1,-1,-1,-1,-1,-1,-1,-1,-1,-1,-1,-1,-1,-1,-1,-1,-1,-1,-1,-1,-1],"split_conditions":[1.1799765E0,-2.827387E-1,1.6265143E0,-1.845121E-1,5.0511833E-2,1.057394E0,1.8533162E0,4.8143763E-2,-6.4634144E-1,-5.8762425E-1,1.6933793E-1,9.950387E-1,1.3092417E0,1.42081E0,2.2876225E-1,2.708261E-2,-8.201877E-1,-1.1164237E0,-2.4584375E-1,-8.931338E-1,-3.0060893E-1,-5.2985877E-1,-7.9104364E-1,1.690358E0,7.9924166E-1,1.0327431E0,1.4393977E0,-7.108771E-1,1.8253962E0,2.2373866E-1,2.3087503E-3,-1.5094239E-1,-1.115551E-2,1.8710073E-2,2.0403157E-1,-2.0895873E-1,-6.594237E-2,-3.4672686E-1,-5.979779E-2,8.154607E-3,-1.7066972E-1,1.4822125E-1,-6.620295E-2,-2.2066211E-2,-1.6564593E-1,1.8998447E-1,-1.8949935E-1,-1.7202275E-1,-4.5757804E-2,4.2477092E-1,2.9456747E-1,2.0512858E-2,2.043238E-1,-2.7819487E-1,-7.7561855E-2,-9.914049E-3,-1.5105852E-1],"split_indices":[6,1,12,0,12,2,2,10,12,2,2,12,12,2,4,10,9,2,2,12,12,0,0,3,4,12,2,0,12,0,0,0,0,0,0,0,0,0,0,0,0,0,0,0,0,0,0,0,0,0,0,0,0,0,0,0,0],"split_type":[0,0,0,0,0,0,0,0,0,0,0,0,0,0,0,0,0,0,0,0,0,0,0,0,0,0,0,0,0,0,0,0,0,0,0,0,0,0,0,0,0,0,0,0,0,0,0,0,0,0,0,0,0,0,0,0,0],"sum_hessian":[3.22E2,1.84E2,1.38E2,1.1E2,7.4E1,1.17E2,2.1E1,1.6E1,9.4E1,6.9E1,5E0,6.3E1,5.4E1,1.5E1,6E0,1E1,6E0,6.3E1,3.1E1,4.3E1,2.6E1,2E0,3E0,5.7E1,6E0,3.4E1,2E1,4E0,1.1E1,5E0,1E0,5E0,5E0,2E0,4E0,3.4E1,2.9E1,2.4E1,7E0,2.3E1,2E1,1.8E1,8E0,1E0,2E0,5.5E1,2E0,4E0,2E0,1E1,2.4E1,1E1,1E1,3E0,1E0,5E0,6E0],"tree_param":{"num_deleted":"0","num_feature":"14","num_nodes":"57","size_leaf_vector":"1"}},{"base_weights":[1.7417595E-1,-5.8481236E0,2.8132927E0,-8.081497E0,-1.7247728E0,6.66349E-1,5.2694306E0,-1.101096E1,-5.6599145E0,-2.856632E0,-4.97093E-1,-1.0902601E0,3.5401876E0,2.76074E0,7.2808423E0,-5.6177396E-1,-1.2933627E-1,-3.1992945E-1,-2.2289753E-1,-9.982567E-1,-3.3162923E0,5.970281E-2,-1.230402E-1,-2.3899727E0,-4.3098815E-2,2.1342235E0,2.4565244E-1,1.5978881E0,3.4274106E0,3.011241E-1,4.4122344E-1,-5.522218E-2,-1.4337731E-2,-1.7432478E-1,-2.7591323E-2,-4.0602114E-2,2.252615E-2,-5.9470385E-2,-1.4680956E-1,-4.5634054E-2,2.1214403E-2,5.313599E-2,1.256459E-1,2.2998493E-2,8.523519E-2,4.5880128E-2,1.7421375E-1],"categories":[],"categories_nodes":[],"categories_segments":[],"categories_sizes":[],"default_left":[0,0,0,0,0,0,0,0,0,0,0,0,0,0,0,0,0,0,0,0,0,0,0,0,0,0,0,0,0,0,0,0,0,0,0,0,0,0,0,0,0,0,0,0,0,0,0],"id":1,"left_children":[1,3,5,7,9,11,13,15,17,19,21,23,25,27,29,-1,-1,-1,-1,31,33,35,-1,37,39,41,-1,43,45,-1,-1,-1,-1,-1,-1,-1,-1,-1,-1,-1,-1,-1,-1,-1,-1,-1,-1],"loss_changes":[5.007028E3,8.7012354E2,1.1513174E3,3.7750317E2,4.7214615E1,5.9954865E2,4.9459253E2,2.2004639E1,3.4383545E0,1.2065491E1,1.9827866E1,1.0061166E2,7.637311E1,3.0959625E1,5.5631348E1,0E0,0E0,0E0,0E0,6.1056614E-2,4.6633453E0,5.476278E0,0E0,1.8148117E1,1.7457355E1,7.068016E0,0E0,1.5252876E0,9.416504E-1,0E0,0E0,0E0,0E0,0E0,0E0,0E0,0E0,0E0,0E0,0E0,0E0,0E0,0E0,0E0,0E0,0E0,0E0],"parents":[2147483647,0,0,1,1,2,2,3,3,4,4,5,5,6,6,7,7,8,8,9,9,10,10,11,11,12,12,13,13,14,14,19,19,20,20,21,21,23,23,24,24,25,25,27,27,28,28],"right_children":[2,4,6,8,10,12,14,16,18,20,22,24,26,28,30,-1,-1,-1,-1,32,34,36,-1,38,40,42,-1,44,46,-1,-1,-1,-1,-1,-1,-1,-1,-1,-1,-1,-1,-1,-1,-1,-1,-1,-1],"split_conditions":[-5.131165E-1,1.6933793E-1,1.1799765E0,-1.1920257E0,-8.734874E-1,6.9308007E-1,3.1200343E-1,1.405179E0,-7.224283E-1,-1.1564801E0,-1.9719645E-1,1.4956251E-1,1.2394336E0,-1.2644398E-1,1.025141E0,-5.6177396E-1,-1.2933627E-1,-3.1992945E-1,-2.2289753E-1,-1.2190548E0,7.9924166E-1,-7.6383555E-1,-1.230402E-1,1.5870745E-1,-8.1760657E-1,-5.229985E-1,2.4565244E-1,-1.0677705E0,-1.4497079E0,3.011241E-1,4.4122344E-1,-5.522218E-2,-1.4337731E-2,-1.7432478E-1,-2.7591323E-2,-4.0602114E-2,2.252615E-2,-5.9470385E-2,-1.4680956E-1,-4.5634054E-2,2.1214403E-2,5.313599E-2,1.256459E-1,2.2998493E-2,8.523519E-2,4.5880128E-2,1.7421375E-1],"split_indices":[5,2,11,5,5,5,5,3,5,0,0,5,5,5,5,0,0,0,0,0,4,5,0,0,1,7,0,1,1,0,0,0,0,0,0,0,0,0,0,0,0,0,0,0,0,0,0],"split_type":[0,0,0,0,0,0,0,0,0,0,0,0,0,0,0,0,0,0,0,0,0,0,0,0,0,0,0,0,0,0,0,0,0,0,0,0,0,0,0,0,0,0,0,0,0,0,0],"sum_hessian":[3.13E2,9.5E1,2.18E2,6.1E1,3.4E1,1.17E2,1.01E2,2.6E1,3.5E1,1.7E1,1.7E1,7.3E1,4.4E1,4.6E1,5.5E1,2.5E1,1E0,1.9E1,1.6E1,4E0,1.3E1,1.4E1,3E0,3.2E1,4.1E1,2.3E1,2.1E1,1.8E1,2.8E1,3.3E1,2.2E1,3E0,1E0,1.2E1,1E0,4E0,1E1,1.1E1,2.1E1,1.4E1,2.7E1,7E0,1.6E1,2E0,1.6E1,1E0,2.7E1],"tree_param":{"num_deleted":"0","num_feature":"14","num_nodes":"47","size_leaf_vector":"1"}},{"base_weights":[8.742132E-2,-4.991374E0,2.7131035E0,-7.0783577E0,-1.3708912E0,7.565315E-1,5.1080613E0,-9.717236E0,-4.6761E0,-3.1163962E0,5.4760147E-2,-6.959631E-1,3.3596551E0,2.8393579E0,6.723912E0,-4.936503E-1,-1.2610283E-1,-2.5371394E-1,-1.6368262E-1,-2.1712057E-1,-9.7072E-2,-1.086987E-1,4.9776897E-1,-1.6833994E0,1.3986123E-1,1.8975686E0,2.210697E-1,1.8345263E0,3.3098624E0,2.6267546E-1,3.798978E-1,-2.9504776E-2,4.0330805E-2,-1.4209557E-1,-6.66825E-2,-3.467837E-2,2.9884854E-2,4.3170836E-2,1.102618E-1,2.2231866E-2,1.0070763E-1,4.4733144E-2,1.6853419E-1],"categories":[],"categories_nodes":[],"categories_segments":[],"categories_sizes":[],"default_left":[0,0,0,0,0,0,0,0,0,0,0,0,0,0,0,0,0,0,0,0,0,0,0,0,0,0,0,0,0,0,0,0,0,0,0,0,0,0,0,0,0,0,0],"id":2,"left_children":[1,3,5,7,9,11,13,15,17,19,21,23,25,27,29,-1,-1,-1,-1,-1,-1,-1,31,33,35,37,-1,39,41,-1,-1,-1,-1,-1,-1,-1,-1,-1,-1,-1,-1,-1,-1],"loss_changes":[4.147486E3,7.9122095E2,9.567467E2,3.79292E2,9.9709915E1,4.3337482E2,3.1816968E2,9.844482E0,4.050232E0,1.7498718E1,2.379116E1,6.130937E1,5.5256622E1,1.2839081E1,2.8199707E1,0E0,0E0,0E0,0E0,0E0,0E0,0E0,7.1956563E0,9.986305E0,1.6059057E1,4.141281E0,0E0,2.8493347E0,8.036499E-1,0E0,0E0,0E0,0E0,0E0,0E0,0E0,0E0,0E0,0E0,0E0,0E0,0E0,0E0],"parents":[2147483647,0,0,1,1,2,2,3,3,4,4,5,5,6,6,7,7,8,8,9,9,10,10,11,11,12,12,13,13,14,14,22,22,23,23,24,24,25,25,27,27,28,28],"right_children":[2,4,6,8,10,12,14,16,18,20,22,24,26,28,30,-1,-1,-1,-1,-1,-1,-1,32,34,36,38,-1,40,42,-1,-1,-1,-1,-1,-1,-1,-1,-1,-1,-1,-1,-1,-1],"split_conditions":[-3.402423E-1,-3.0039948E-1,1.1799765E0,-1.0735643E0,-9.5043206E-1,6.9308007E-1,3.1200343E-1,1.405179E0,-5.244158E-1,-1.3268185E0,-4.489982E-1,2.1608315E-1,1.1685885E0,-1.1565185E-1,7.471809E-1,-4.936503E-1,-1.2610283E-1,-2.5371394E-1,-1.6368262E-1,-2.1712057E-1,-9.7072E-2,-1.086987E-1,-8.092837E-1,-1.4321383E0,-8.1760657E-1,-8.310695E-1,2.210697E-1,-1.0677705E0,-1.4497079E0,2.6267546E-1,3.798978E-1,-2.9504776E-2,4.0330805E-2,-1.4209557E-1,-6.66825E-2,-3.467837E-2,2.9884854E-2,4.3170836E-2,1.102618E-1,2.2231866E-2,1.0070763E-1,4.4733144E-2,1.6853419E-1],"split_indices":[5,8,6,5,5,5,5,3,5,5,1,5,5,5,5,0,0,0,0,0,0,0,5,1,1,1,0,1,1,0,0,0,0,0,0,0,0,0,0,0,0,0,0],"split_type":[0,0,0,0,0,0,0,0,0,0,0,0,0,0,0,0,0,0,0,0,0,0,0,0,0,0,0,0,0,0,0,0,0,0,0,0,0,0,0,0,0,0,0],"sum_hessian":[3.09E2,1.05E2,2.04E2,6.6E1,3.9E1,1.13E2,9.1E1,3E1,3.6E1,1.7E1,2.2E1,7.3E1,4E1,3.9E1,5.2E1,2.9E1,1E0,2.6E1,1E1,7E0,1E1,3E0,1.9E1,3.3E1,4E1,1.8E1,2.2E1,1.4E1,2.5E1,2.2E1,3E1,4E0,1.5E1,6E0,2.7E1,1.4E1,2.6E1,5E0,1.3E1,2E0,1.2E1,1E0,2.4E1],"tree_param":{"num_deleted":"0","num_feature":"14","num_nodes":"43","size_leaf_vector":"1"}},{"base_weights":[1.3057132E-1,-4.5080953E0,2.6899743E0,-6.529778E0,-1.3581475E0,8.327847E-1,5.247295E0,-4.8559615E-1,-4.589223E0,-4.277489E0,-1.1612017E-1,-6.474152E-1,3.3567631E0,3.1790736E0,6.7969265E0,-2.775736E-1,-1.8532376E-1,-2.525228E-1,-1.202562E-1,-1.3088511E0,7.8423405E-1,-1.5074494E0,2.288043E-1,2.1934001E0,4.6372714E0,2.44375E0,2.0646624E-1,2.9266748E-1,4.2180967E-1,-8.1044845E-2,-4.165995E-2,9.767832E-3,5.1132806E-2,-8.839203E-2,-2.0705987E-2,-2.6511928E-2,3.0695394E-2,5.8211733E-2,1.2556455E-1,6.1513137E-2,2.3730545E-1,1.3004641E-1,4.8416566E-2],"categories":[],"categories_nodes":[],"categories_segments":[],"categories_sizes":[],"default_left":[0,0,0,0,0,0,0,0,0,0,0,0,0,0,0,0,0,0,0,0,0,0,0,0,0,0,0,0,0,0,0,0,0,0,0,0,0,0,0,0,0,0,0],"id":3,"left_children":[1,3,5,7,9,11,13,-1,15,17,19,21,23,25,27,-1,-1,-1,-1,29,31,33,35,37,39,41,-1,-1,-1,-1,-1,-1,-1,-1,-1,-1,-1,-1,-1,-1,-1,-1,-1],"loss_changes":[3.906214E3,7.3621045E2,1.0025093E3,3.9386353E2,1.699207E2,4.6543625E2,2.6363525E2,0E0,1.849707E1,8.114899E0,3.7538376E1,5.9877625E1,5.8354675E1,1.7858704E1,2.795874E1,0E0,0E0,0E0,0E0,8.7584686E-1,2.608244E0,1.065564E1,1.2017921E1,5.582489E0,1.9480591E0,3.2790222E0,0E0,0E0,0E0,0E0,0E0,0E0,0E0,0E0,0E0,0E0,0E0,0E0,0E0,0E0,0E0,0E0,0E0],"parents":[2147483647,0,0,1,1,2,2,3,3,4,4,5,5,6,6,8,8,9,9,10,10,11,11,12,12,13,13,14,14,19,19,20,20,21,21,22,22,23,23,24,24,25,25],"right_children":[2,4,6,8,10,12,14,-1,16,18,20,22,24,26,28,-1,-1,-1,-1,30,32,34,36,38,40,42,-1,-1,-1,-1,-1,-1,-1,-1,-1,-1,-1,-1,-1,-1,-1,-1,-1],"split_conditions":[-2.598487E-1,1.1799765E0,1.1799765E0,-1.1426446E0,-1.2447383E0,6.9308007E-1,5.400067E-1,-4.8559615E-1,-6.561547E-1,-1.4636607E0,-7.873793E-1,2.6774183E-1,1.3006399E0,1.7657317E-1,1.2203255E0,-2.775736E-1,-1.8532376E-1,-2.525228E-1,-1.202562E-1,-9.5043206E-1,4.6473664E-1,9.073303E-2,-8.1760657E-1,-5.229985E-1,-1.5365175E0,5.5701472E-2,2.0646624E-1,2.9266748E-1,4.2180967E-1,-8.1044845E-2,-4.165995E-2,9.767832E-3,5.1132806E-2,-8.839203E-2,-2.0705987E-2,-2.6511928E-2,3.0695394E-2,5.8211733E-2,1.2556455E-1,6.1513137E-2,2.3730545E-1,1.3004641E-1,4.8416566E-2],"split_indices":[5,11,11,5,5,5,5,0,5,5,5,5,5,5,5,0,0,0,0,5,1,1,1,7,1,10,0,0,0,0,0,0,0,0,0,0,0,0,0,0,0,0,0],"split_type":[0,0,0,0,0,0,0,0,0,0,0,0,0,0,0,0,0,0,0,0,0,0,0,0,0,0,0,0,0,0,0,0,0,0,0,0,0,0,0,0,0,0,0],"sum_hessian":[3.27E2,1.16E2,2.11E2,7E1,4.6E1,1.23E2,8.8E1,2.5E1,4.5E1,1.3E1,3.3E1,7.8E1,4.5E1,3.9E1,4.9E1,1.9E1,2.6E1,8E0,5E0,1.4E1,1.9E1,3.9E1,3.9E1,2.5E1,2E1,2.4E1,1.5E1,3.4E1,1.5E1,7E0,7E0,6E0,1.3E1,3.1E1,8E0,1.3E1,2.6E1,7E0,1.8E1,1E0,1.9E1,2.1E1,3E0],"tree_param":{"num_deleted":"0","num_feature":"14","num_nodes":"43","size_leaf_vector":"1"}},{"base_weights":[-1.20414115E-1,-4.7858343E0,2.2128382E0,-6.8395143E0,-1.3790957E0,5.724609E-1,4.5245404E0,-4.992368E-1,-4.7055492E0,-3.4525168E0,-2.2530591E-2,-8.805265E-1,3.1032627E0,2.1881444E0,5.9874353E0,-2.7967954E-1,-1.884725E-1,-2.0550652E-1,-9.629539E-2,-1.0496265E0,6.433862E-1,-1.2480426E-1,-3.0238652E-1,2.018383E0,4.2936482E0,1.5483532E0,1.3272747E-1,2.3663788E-1,3.5798824E-1,-5.5289425E-2,-1.2200165E-2,6.864103E-3,4.2141136E-2,-3.9667547E-2,1.9080805E-2,5.176648E-2,1.18890464E-1,1.7076796E-1,2.7018672E-1,2.0521037E-2,8.324718E-2],"categories":[],"categories_nodes":[],"categories_segments":[],"categories_sizes":[],"default_left":[0,0,0,0,0,0,0,0,0,0,0,0,0,0,0,0,0,0,0,0,0,0,0,0,0,0,0,0,0,0,0,0,0,0,0,0,0,0,0,0,0],"id":4,"left_children":[1,3,5,7,9,11,13,-1,15,17,19,21,23,25,27,-1,-1,-1,-1,29,31,-1,33,35,37,39,-1,-1,-1,-1,-1,-1,-1,-1,-1,-1,-1,-1,-1,-1,-1],"loss_changes":[3.6246104E3,7.671626E2,8.3924805E2,4.1613013E2,1.2086963E2,4.844487E2,3.0134558E2,0E0,1.4660889E1,9.150894E0,1.9142244E1,7.7702835E1,5.3322144E1,6.9306793E0,4.8484985E1,0E0,0E0,0E0,0E0,2.2788239E-1,1.6002016E0,0E0,2.1459476E1,7.078232E0,2.993805E0,1.7047691E0,0E0,0E0,0E0,0E0,0E0,0E0,0E0,0E0,0E0,0E0,0E0,0E0,0E0,0E0,0E0],"parents":[2147483647,0,0,1,1,2,2,3,3,4,4,5,5,6,6,8,8,9,9,10,10,11,11,12,12,13,13,14,14,19,19,20,20,22,22,23,23,24,24,25,25],"right_children":[2,4,6,8,10,12,14,-1,16,18,20,22,24,26,28,-1,-1,-1,-1,30,32,-1,34,36,38,40,-1,-1,-1,-1,-1,-1,-1,-1,-1,-1,-1,-1,-1,-1,-1],"split_conditions":[-4.041237E-1,1.1799765E0,1.1799765E0,-1.2448717E0,-1.0063324E0,6.9308007E-1,2.0154299E-1,-4.992368E-1,-7.224283E-1,-1.3268185E0,-7.6383555E-1,-1.5562835E-2,1.28383E0,-1.2644398E-1,8.221445E-1,-2.7967954E-1,-1.884725E-1,-2.0550652E-1,-9.629539E-2,9.757646E-1,4.6473664E-1,-1.2480426E-1,4.2047706E-1,-5.229985E-1,1.9836956E0,-1.0677705E0,1.3272747E-1,2.3663788E-1,3.5798824E-1,-5.5289425E-2,-1.2200165E-2,6.864103E-3,4.2141136E-2,-3.9667547E-2,1.9080805E-2,5.176648E-2,1.18890464E-1,1.7076796E-1,2.7018672E-1,2.0521037E-2,8.324718E-2],"split_indices":[5,11,11,5,5,5,5,0,5,5,5,5,5,5,5,0,0,0,0,1,1,0,5,7,5,1,0,0,0,0,0,0,0,0,0,0,0,0,0,0,0],"split_type":[0,0,0,0,0,0,0,0,0,0,0,0,0,0,0,0,0,0,0,0,0,0,0,0,0,0,0,0,0,0,0,0,0,0,0,0,0,0,0,0,0],"sum_hessian":[3.31E2,1.1E2,2.21E2,6.8E1,4.2E1,1.3E2,9.1E1,2.6E1,4.2E1,1.6E1,2.6E1,8.3E1,4.7E1,3.6E1,5.5E1,1.9E1,2.3E1,1E1,6E0,1E1,1.6E1,2.1E1,6.2E1,2.6E1,2.1E1,1.7E1,1.9E1,2.9E1,2.6E1,9E0,1E0,5E0,1.1E1,3.6E1,2.6E1,8E0,1.8E1,1.4E1,7E0,2E0,1.5E1],"tree_param":{"num_deleted":"0","num_feature":"14","num_nodes":"41","size_leaf_vector":"1"}},{"base_weights":[-1.1187892E-1,-4.580033E0,2.382495E0,-8.241302E0,-2.8486085E0,5.8813435E-1,4.6860003E0,-9.497317E0,-2.1474805E-1,-4.447233E0,-2.9168516E-1,-6.893686E-1,2.8684661E0,2.9238129E0,6.3138504E0,-5.598309E-1,-3.761527E-1,-2.741379E-1,-1.7004053E-1,-1.3830523E0,6.946237E-1,-1.6869898E0,2.5756186E-2,2.0947664E0,4.376768E0,2.1902637E0,1.9447777E-1,2.6125804E-1,3.635014E-1,-8.7610245E-2,-4.5062214E-2,6.266194E-2,1.9168442E-2,-1.0909424E-1,-5.4643005E-2,-4.0042497E-2,2.1912718E-2,3.7353836E-2,1.1626019E-1,5.570612E-2,2.2710195E-1,1.1543476E-1,4.3644764E-2],"categories":[],"categories_nodes":[],"categories_segments":[],"categories_sizes":[],"default_left":[0,0,0,0,0,0,0,0,0,0,0,0,0,0,0,0,0,0,0,0,0,0,0,0,0,0,0,0,0,0,0,0,0,0,0,0,0,0,0,0,0,0,0],"id":5,"left_children":[1,3,5,7,9,11,13,15,-1,17,19,21,23,25,27,-1,-1,-1,-1,29,31,33,35,37,39,41,-1,-1,-1,-1,-1,-1,-1,-1,-1,-1,-1,-1,-1,-1,-1,-1,-1],"loss_changes":[3.7334243E3,7.37229E2,8.859075E2,1.475625E2,3.3797028E2,3.573794E2,2.5118579E2,9.703857E0,0E0,3.6617737E1,3.648273E1,5.6403923E1,4.2178497E1,2.477655E1,1.197998E1,0E0,0E0,0E0,0E0,1.2666054E0,2.6492367E0,7.31855E0,1.637673E1,7.8901978E0,2.4887085E0,2.5092773E0,0E0,0E0,0E0,0E0,0E0,0E0,0E0,0E0,0E0,0E0,0E0,0E0,0E0,0E0,0E0,0E0,0E0],"parents":[2147483647,0,0,1,1,2,2,3,3,4,4,5,5,6,6,7,7,9,9,10,10,11,11,12,12,13,13,14,14,19,19,20,20,21,21,22,22,23,23,24,24,25,25],"right_children":[2,4,6,8,10,12,14,16,-1,18,20,22,24,26,28,-1,-1,-1,-1,30,32,34,36,38,40,42,-1,-1,-1,-1,-1,-1,-1,-1,-1,-1,-1,-1,-1,-1,-1,-1,-1],"split_conditions":[-3.402423E-1,-1.2610484E0,1.1799765E0,1.1799765E0,1.1799765E0,6.9308007E-1,5.838301E-1,-1.6785274E0,-2.1474805E-1,-7.224283E-1,-7.6383555E-1,1.5941547E-1,1.4045827E0,1.8509106E-1,1.025141E0,-5.598309E-1,-3.761527E-1,-2.741379E-1,-1.7004053E-1,-9.5043206E-1,5.989473E-1,-1.5562835E-2,-9.37812E-1,-1.2160648E0,-1.5365175E0,5.5701472E-2,1.9447777E-1,2.6125804E-1,3.635014E-1,-8.7610245E-2,-4.5062214E-2,6.266194E-2,1.9168442E-2,-1.0909424E-1,-5.4643005E-2,-4.0042497E-2,2.1912718E-2,3.7353836E-2,1.1626019E-1,5.570612E-2,2.2710195E-1,1.1543476E-1,4.3644764E-2],"split_indices":[5,5,11,11,11,5,5,5,0,5,5,5,5,5,5,0,0,0,0,5,2,5,1,1,1,10,0,0,0,0,0,0,0,0,0,0,0,0,0,0,0,0,0],"split_type":[0,0,0,0,0,0,0,0,0,0,0,0,0,0,0,0,0,0,0,0,0,0,0,0,0,0,0,0,0,0,0,0,0,0,0,0,0,0,0,0,0,0,0],"sum_hessian":[3.33E2,1.19E2,2.14E2,3.7E1,8.2E1,1.21E2,9.3E1,2.7E1,1E1,5E1,3.2E1,7.8E1,4.3E1,4.6E1,4.7E1,1.2E1,1.5E1,2.3E1,2.7E1,1.5E1,1.7E1,3.2E1,4.6E1,3E1,1.3E1,2.8E1,1.8E1,2.5E1,2.2E1,7E0,8E0,5E0,1.2E1,1.6E1,1.6E1,1.5E1,3.1E1,5E0,2.5E1,1E0,1.2E1,2.5E1,3E0],"tree_param":{"num_deleted":"0","num_feature":"14","num_nodes":"43","size_leaf_vector":"1"}},{"base_weights":[5.6971125E-2,-4.684932E0,2.1763613E0,-6.4098783E0,-1.5840554E0,2.2193374E-1,3.940257E0,-8.693059E0,-4.400194E0,-3.5680747E0,-6.837375E-1,-1.2287472E0,2.1512432E0,2.3052106E0,5.714286E0,-5.299358E-1,-3.6162764E-1,-2.2494625E-1,-9.237137E-2,-1.9221972E-1,-7.748788E-2,-9.2926544E-1,5.333328E-1,-1.17348194E-1,-6.5330637E-1,1.1998749E0,2.800325E0,1.0287588E0,3.6782348E0,2.4167977E-1,3.6035672E-1,-5.251464E-2,9.366926E-3,5.571461E-3,3.0547572E-2,-5.3222723E-2,-3.4407086E-3,3.6100507E-2,7.0082374E-2,3.799505E-2,1.4257729E-1,-6.699028E-3,5.968783E-2,1.5419905E-1,2.4263273E-1],"categories":[],"categories_nodes":[],"categories_segments":[],"categories_sizes":[],"default_left":[0,0,0,0,0,0,0,0,0,0,0,0,0,0,0,0,0,0,0,0,0,0,0,0,0,0,0,0,0,0,0,0,0,0,0,0,0,0,0,0,0,0,0,0,0],"id":6,"left_children":[1,3,5,7,9,11,13,15,17,19,21,23,25,27,29,-1,-1,-1,-1,-1,-1,31,33,-1,35,37,39,41,43,-1,-1,-1,-1,-1,-1,-1,-1,-1,-1,-1,-1,-1,-1,-1,-1],"loss_changes":[3.1558286E3,5.0868433E2,7.472125E2,2.4623413E2,6.1865303E1,2.9371988E2,3.1749805E2,1.2744141E0,5.0982666E-1,1.768341E-1,8.265053E0,3.7074776E1,2.4428162E1,1.0312454E2,3.61593E1,0E0,0E0,0E0,0E0,0E0,0E0,3.1698303E0,9.565997E-2,0E0,9.779579E0,9.163952E-1,5.504303E-1,6.4909744E0,5.273712E0,0E0,0E0,0E0,0E0,0E0,0E0,0E0,0E0,0E0,0E0,0E0,0E0,0E0,0E0,0E0,0E0],"parents":[2147483647,0,0,1,1,2,2,3,3,4,4,5,5,6,6,7,7,8,8,9,9,10,10,11,11,12,12,13,13,14,14,21,21,22,22,24,24,25,25,26,26,27,27,28,28],"right_children":[2,4,6,8,10,12,14,16,18,20,22,24,26,28,30,-1,-1,-1,-1,-1,-1,32,34,-1,36,38,40,42,44,-1,-1,-1,-1,-1,-1,-1,-1,-1,-1,-1,-1,-1,-1,-1,-1],"split_conditions":[-5.131165E-1,-3.0039948E-1,4.5810464E-1,-1.2448717E0,-1.2447383E0,1.1799765E0,1.1799765E0,-1.7346721E0,-5.244158E-1,-1.3955358E0,-5.819228E-1,-1.5562835E-2,-1.2644398E-1,1.1685885E0,1.1374838E0,-5.299358E-1,-3.6162764E-1,-2.2494625E-1,-9.237137E-2,-1.9221972E-1,-7.748788E-2,1.1953424E0,3.7364787E-1,-1.17348194E-1,-3.9255717E-1,-2.5690287E-1,-1.4497079E0,-1.4987897E0,1.9836956E0,2.4167977E-1,3.6035672E-1,-5.251464E-2,9.366926E-3,5.571461E-3,3.0547572E-2,-5.3222723E-2,-3.4407086E-3,3.6100507E-2,7.0082374E-2,3.799505E-2,1.4257729E-1,-6.699028E-3,5.968783E-2,1.5419905E-1,2.4263273E-1],"split_indices":[5,8,5,5,5,6,6,5,5,5,5,5,5,5,5,0,0,0,0,0,0,8,1,0,1,7,1,1,5,0,0,0,0,0,0,0,0,0,0,0,0,0,0,0,0],"split_type":[0,0,0,0,0,0,0,0,0,0,0,0,0,0,0,0,0,0,0,0,0,0,0,0,0,0,0,0,0,0,0,0,0,0,0,0,0,0,0,0,0,0,0,0,0],"sum_hessian":[3.12E2,9.6E1,2.16E2,6.1E1,3.5E1,1.03E2,1.13E2,2.7E1,3.4E1,1E1,2.5E1,5.9E1,4.4E1,6E1,5.3E1,9E0,1.8E1,3.2E1,2E0,8E0,2E0,2.1E1,4E0,1.9E1,4E1,1.9E1,2.5E1,3.2E1,2.8E1,3.6E1,1.7E1,1.9E1,2E0,1E0,3E0,2.3E1,1.7E1,7E0,1.2E1,1E0,2.4E1,4E0,2.8E1,2.1E1,7E0],"tree_param":{"num_deleted":"0","num_feature":"14","num_nodes":"45","size_leaf_vector":"1"}},{"base_weights":[2.093513E-2,-4.4659686E0,1.9887836E0,-6.1506457E0,-1.7851871E0,5.929407E-1,3.9722943E0,-8.100134E0,-2.182142E-1,-1.9347207E-1,-9.614544E-1,-3.6783338E-1,2.6571045E0,2.2961001E0,5.6714516E0,-4.1992125E-1,-1.4074466E-1,-4.371157E-1,-2.3487463E0,-7.2938865E-1,1.9132291E0,1.7650267E0,3.5947428E0,1.2669967E0,2.9056325E0,2.3387423E-1,3.3648673E-1,-5.5513985E-2,1.9908976E-2,-7.057869E-2,-1.4665127E-1,-1.1806295E-1,-9.560729E-3,5.7733607E-2,1.3028835E-1,4.6060063E-2,1.029148E-1,1.8388556E-1,5.0458528E-2,2.7820079E-2,7.333842E-2,3.7045192E-2,1.4773649E-1],"categories":[],"categories_nodes":[],"categories_segments":[],"categories_sizes":[],"default_left":[0,0,0,0,0,0,0,0,0,0,0,0,0,0,0,0,0,0,0,0,0,0,0,0,0,0,0,0,0,0,0,0,0,0,0,0,0,0,0,0,0,0,0],"id":7,"left_children":[1,3,5,7,9,11,13,15,-1,-1,17,19,21,23,25,-1,-1,27,29,31,33,35,37,39,41,-1,-1,-1,-1,-1,-1,-1,-1,-1,-1,-1,-1,-1,-1,-1,-1,-1,-1],"loss_changes":[2.8961438E3,4.4064502E2,6.2890137E2,1.7708081E2,6.495445E1,2.6870874E2,2.5470093E2,2.0502563E1,0E0,0E0,2.0795652E1,7.8095406E1,2.9622375E1,2.705487E1,1.6909058E1,0E0,0E0,1.3374775E1,2.4037933E-1,7.068515E1,3.8204727E0,4.0431366E0,5.789795E-1,2.0230255E0,9.992981E-1,0E0,0E0,0E0,0E0,0E0,0E0,0E0,0E0,0E0,0E0,0E0,0E0,0E0,0E0,0E0,0E0,0E0,0E0],"parents":[2147483647,0,0,1,1,2,2,3,3,4,4,5,5,6,6,7,7,10,10,11,11,12,12,13,13,14,14,17,17,18,18,19,19,20,20,21,21,22,22,23,23,24,24],"right_children":[2,4,6,8,10,12,14,16,-1,-1,18,20,22,24,26,-1,-1,28,30,32,34,36,38,40,42,-1,-1,-1,-1,-1,-1,-1,-1,-1,-1,-1,-1,-1,-1,-1,-1,-1,-1],"split_conditions":[-5.244158E-1,-2.1419412E-1,4.6950954E-1,-1.1920257E0,-1.3268185E0,7.053751E-1,5.400067E-1,1.1799765E0,-2.182142E-1,-1.9347207E-1,-1.9719645E-1,1.1799765E0,1.2394336E0,-1.1565185E-1,1.1374838E0,-4.1992125E-1,-1.4074466E-1,-7.6383555E-1,4.5869652E-2,-5.5260286E-2,-1.5236609E-1,-5.229985E-1,2.551449E-1,-3.981113E-1,-1.4497079E0,2.3387423E-1,3.3648673E-1,-5.5513985E-2,1.9908976E-2,-7.057869E-2,-1.4665127E-1,-1.1806295E-1,-9.560729E-3,5.7733607E-2,1.3028835E-1,4.6060063E-2,1.029148E-1,1.8388556E-1,5.0458528E-2,2.7820079E-2,7.333842E-2,3.7045192E-2,1.4773649E-1],"split_indices":[5,8,8,5,5,5,5,6,0,0,0,6,5,5,5,0,0,5,0,5,5,7,10,5,1,0,0,0,0,0,0,0,0,0,0,0,0,0,0,0,0,0,0],"split_type":[0,0,0,0,0,0,0,0,0,0,0,0,0,0,0,0,0,0,0,0,0,0,0,0,0,0,0,0,0,0,0,0,0,0,0,0,0,0,0,0,0,0,0],"sum_hessian":[3.26E2,9.9E1,2.27E2,6E1,3.9E1,1.34E2,9.3E1,2.7E1,3.3E1,1E1,2.9E1,9.2E1,4.2E1,4.8E1,4.5E1,2.5E1,2E0,2.2E1,7E0,8E1,1.2E1,2.3E1,1.9E1,1.9E1,2.9E1,2.6E1,1.9E1,1.2E1,1E1,4E0,3E0,1.9E1,6.1E1,7E0,5E0,7E0,1.6E1,1.8E1,1E0,5E0,1.4E1,1E0,2.8E1],"tree_param":{"num_deleted":"0","num_feature":"14","num_nodes":"43","size_leaf_vector":"1"}},{"base_weights":[-4.8418876E-2,-3.8147676E0,1.8701813E0,-5.391929E0,-1.2686142E0,3.4928945E-1,3.7359724E0,-8.137502E0,-3.9616137E0,-1.7764257E-1,-4.687589E-1,-6.9183886E-1,2.5026767E0,1.940794E0,4.983586E0,-5.279671E-1,-6.5693526E0,-2.572644E-1,-1.6697E-1,1.2382962E-1,-1.3899589E0,-1.4298741E0,1.00394055E-1,1.3657128E0,3.5145068E0,1.2467602E0,1.19022645E-1,1.825664E-1,2.7353448E-1,-3.3788928E-1,-9.3571566E-2,-4.224889E-2,2.8384222E-2,-8.470728E-2,-2.8221551E-2,-9.675556E-2,-4.6418454E-2,-3.0853564E-2,2.5522754E-2,1.890645E-2,7.5887464E-2,1.3267404E-1,2.2371805E-1,1.379776E-2,6.7543186E-2],"categories":[],"categories_nodes":[],"categories_segments":[],"categories_sizes":[],"default_left":[0,0,0,0,0,0,0,0,0,0,0,0,0,0,0,0,0,0,0,0,0,0,0,0,0,0,0,0,0,0,0,0,0,0,0,0,0,0,0,0,0,0,0,0,0],"id":8,"left_children":[1,3,5,7,9,11,13,15,17,-1,19,21,23,25,27,-1,29,-1,-1,31,33,35,37,39,41,43,-1,-1,-1,-1,-1,-1,-1,-1,-1,-1,-1,-1,-1,-1,-1,-1,-1,-1,-1],"loss_changes":[2.333944E3,4.3087048E2,6.059557E2,2.308739E2,7.689811E1,2.6852377E2,2.0533801E2,1.4183716E1,1.6696777E1,0E0,1.8186573E1,4.750391E1,4.006639E1,9.542801E0,1.63656E1,0E0,1.5170898E0,0E0,0E0,9.509888E0,2.3082619E0,8.845413E0,1.208317E1,2.4290695E0,4.65654E0,1.4463768E0,0E0,0E0,0E0,0E0,0E0,0E0,0E0,0E0,0E0,0E0,0E0,0E0,0E0,0E0,0E0,0E0,0E0,0E0,0E0],"parents":[2147483647,0,0,1,1,2,2,3,3,4,4,5,5,6,6,7,7,8,8,10,10,11,11,12,12,13,13,14,14,16,16,19,19,20,20,21,21,22,22,23,23,24,24,25,25],"right_children":[2,4,6,8,10,12,14,16,18,-1,20,22,24,26,28,-1,30,-1,-1,32,34,36,38,40,42,44,-1,-1,-1,-1,-1,-1,-1,-1,-1,-1,-1,-1,-1,-1,-1,-1,-1,-1,-1],"split_conditions":[-2.9765937E-1,-3.0039948E-1,1.1799765E0,-1.2521838E0,-1.333651E0,7.0511997E-1,3.7936053E-1,-1.9973587E0,-8.6096436E-1,-1.7764257E-1,9.171848E-3,3.4009597E-1,1.1376694E0,-1.3713441E-2,6.578947E-1,-5.279671E-1,8.8066095E-1,-2.572644E-1,-1.6697E-1,-7.26142E-1,4.0004134E-1,8.111892E-2,-5.473937E-1,-1.8622268E0,1.6719922E0,-1.0677705E0,1.19022645E-1,1.825664E-1,2.7353448E-1,-3.3788928E-1,-9.3571566E-2,-4.224889E-2,2.8384222E-2,-8.470728E-2,-2.8221551E-2,-9.675556E-2,-4.6418454E-2,-3.0853564E-2,2.5522754E-2,1.890645E-2,7.5887464E-2,1.3267404E-1,2.2371805E-1,1.379776E-2,6.7543186E-2],"split_indices":[13,8,6,13,13,13,13,13,13,0,10,13,13,13,13,0,3,0,0,13,8,13,7,1,13,1,0,0,0,0,0,0,0,0,0,0,0,0,0,0,0,0,0,0,0],"split_type":[0,0,0,0,0,0,0,0,0,0,0,0,0,0,0,0,0,0,0,0,0,0,0,0,0,0,0,0,0,0,0,0,0,0,0,0,0,0,0,0,0,0,0,0,0],"sum_hessian":[3.21E2,1.08E2,2.13E2,6.6E1,4.2E1,1.18E2,9.5E1,2.1E1,4.5E1,1E1,3.2E1,8E1,3.8E1,4E1,5.5E1,6E0,1.5E1,1.3E1,3.2E1,2E1,1.2E1,4.1E1,3.9E1,1.9E1,1.9E1,1.7E1,2.3E1,1.7E1,3.8E1,1.4E1,1E0,6E0,1.4E1,8E0,4E0,1.9E1,2.2E1,1.4E1,2.5E1,3E0,1.6E1,1.2E1,7E0,2E0,1.5E1],"tree_param":{"num_deleted":"0","num_feature":"14","num_nodes":"45","size_leaf_vector":"1"}},{"base_weights":[-7.887826E-2,-3.6071532E0,2.1288548E0,-6.716118E0,-2.152997E0,7.474563E-1,3.8549724E0,-7.739395E0,-1.8417612E-1,-3.6048534E0,-1.4779523E-1,-8.222105E-2,3.1821043E0,2.599113E0,5.430606E0,-4.7190285E-1,-3.0884936E-1,-2.2223976E-1,-2.8687346E0,-1.0937413E0,6.700536E-1,-5.810061E-1,8.682112E-1,2.586332E0,2.2113577E-1,1.847918E0,1.6992554E-1,2.3292117E-1,3.308315E-1,-1.5943763E-1,-1.0614892E-1,-7.092121E-2,-3.0572785E-2,2.0447133E-2,5.216205E-2,-4.271431E-2,7.465177E-2,-1.4793281E-2,5.2933972E-2,1.7428303E-2,1.338147E-1,1.4531136E-2,9.4657816E-2],"categories":[],"categories_nodes":[],"categories_segments":[],"categories_sizes":[],"default_left":[0,0,0,0,0,0,0,0,0,0,0,0,0,0,0,0,0,0,0,0,0,0,0,0,0,0,0,0,0,0,0,0,0,0,0,0,0,0,0,0,0,0,0],"id":9,"left_children":[1,3,5,7,9,11,13,15,-1,17,19,21,23,25,27,-1,-1,-1,29,31,33,35,37,39,-1,41,-1,-1,-1,-1,-1,-1,-1,-1,-1,-1,-1,-1,-1,-1,-1,-1,-1],"loss_changes":[2.5704214E3,5.59697E2,4.811632E2,9.561914E1,2.5565857E2,2.3053848E2,1.6397498E2,1.8667358E1,0E0,1.8782166E1,3.0131218E1,4.1273716E1,9.995941E0,2.4946014E1,4.894043E0,0E0,0E0,0E0,3.9001465E-1,1.9513168E0,1.6196842E0,3.3582756E1,6.964817E0,3.4960327E0,0E0,1.492836E0,0E0,0E0,0E0,0E0,0E0,0E0,0E0,0E0,0E0,0E0,0E0,0E0,0E0,0E0,0E0,0E0,0E0],"parents":[2147483647,0,0,1,1,2,2,3,3,4,4,5,5,6,6,7,7,9,9,10,10,11,11,12,12,13,13,14,14,18,18,19,19,20,20,21,21,22,22,23,23,25,25],"right_children":[2,4,6,8,10,12,14,16,-1,18,20,22,24,26,28,-1,-1,-1,30,32,34,36,38,40,-1,42,-1,-1,-1,-1,-1,-1,-1,-1,-1,-1,-1,-1,-1,-1,-1,-1,-1],"split_conditions":[-3.402423E-1,-1.2610484E0,4.1916847E-1,1.1799765E0,1.1799765E0,1.0382987E0,6.71838E-1,-1.6785274E0,-1.8417612E-1,-7.6383555E-1,-7.6383555E-1,4.5167032E-1,1.9836956E0,1.8509106E-1,1.485092E0,-4.7190285E-1,-3.0884936E-1,-2.2223976E-1,-3.2751423E-1,-9.5043206E-1,-4.872894E-1,1.1799765E0,-1.4987897E0,-2.0637345E0,2.2113577E-1,-1.5843605E0,1.6992554E-1,2.3292117E-1,3.308315E-1,-1.5943763E-1,-1.0614892E-1,-7.092121E-2,-3.0572785E-2,2.0447133E-2,5.216205E-2,-4.271431E-2,7.465177E-2,-1.4793281E-2,5.2933972E-2,1.7428303E-2,1.338147E-1,1.4531136E-2,9.4657816E-2],"split_indices":[5,5,8,6,6,5,5,5,0,5,5,5,5,5,5,0,0,0,1,5,5,6,1,1,0,1,0,0,0,0,0,0,0,0,0,0,0,0,0,0,0,0,0],"split_type":[0,0,0,0,0,0,0,0,0,0,0,0,0,0,0,0,0,0,0,0,0,0,0,0,0,0,0,0,0,0,0,0,0,0,0,0,0,0,0,0,0,0,0],"sum_hessian":[3.28E2,1.26E2,2.02E2,3.9E1,8.7E1,1.13E2,8.9E1,2.8E1,1.1E1,5E1,3.7E1,8.5E1,2.8E1,5.1E1,3.8E1,1.1E1,1.7E1,2.1E1,2.9E1,1.7E1,2E1,5.6E1,2.9E1,2.1E1,7E0,2.8E1,2.3E1,2.6E1,1.2E1,1.8E1,1.1E1,9E0,8E0,1.3E1,7E0,5E1,6E0,4E0,2.5E1,1E0,2E1,1E0,2.7E1],"tree_param":{"num_deleted":"0","num_feature":"14","num_nodes":"43","size_leaf_vector":"1"}},{"base_weights":[6.297467E-3,-3.3778956E0,1.9089023E0,-6.3140297E0,-2.0753973E0,5.227158E-1,3.5867949E0,-3.768234E-1,-1.7387466E-1,-3.4463603E0,-1.6665226E-1,-5.4168147E-1,2.3087485E0,2.398184E0,5.180762E0,-2.1289717E-1,-2.7633736E0,-9.7053504E-1,5.651749E-1,-1.3460625E0,4.2360265E-2,1.6478983E0,1.701773E-1,1.7027076E0,1.5943329E-1,2.2206607E-1,3.2158816E-1,-1.4331421E-1,-6.8894245E-2,-6.0742106E-2,-3.2680266E-2,1.4248922E-2,4.7492363E-2,-9.504195E-2,-4.332172E-2,1.2292682E-2,-3.9946515E-2,2.4229383E-2,8.796037E-2,1.1851438E-2,8.948108E-2],"categories":[],"categories_nodes":[],"categories_segments":[],"categories_sizes":[],"default_left":[0,0,0,0,0,0,0,0,0,0,0,0,0,0,0,0,0,0,0,0,0,0,0,0,0,0,0,0,0,0,0,0,0,0,0,0,0,0,0,0,0],"id":10,"left_children":[1,3,5,7,9,11,13,-1,-1,15,17,19,21,23,25,-1,27,29,31,33,35,37,-1,39,-1,-1,-1,-1,-1,-1,-1,-1,-1,-1,-1,-1,-1,-1,-1,-1,-1],"loss_changes":[2.1827563E3,4.5346167E2,5.0283936E2,1.0208923E2,2.2447208E2,2.293764E2,1.7324707E2,0E0,0E0,1.594873E1,2.2315742E1,3.5761223E1,2.6948654E1,2.6456818E1,9.361084E0,0E0,3.2803345E-1,5.9967995E-1,1.8849907E0,6.867813E0,7.900287E0,3.0321121E0,0E0,3.7796097E0,0E0,0E0,0E0,0E0,0E0,0E0,0E0,0E0,0E0,0E0,0E0,0E0,0E0,0E0,0E0,0E0,0E0],"parents":[2147483647,0,0,1,1,2,2,3,3,4,4,5,5,6,6,9,9,10,10,11,11,12,12,13,13,14,14,16,16,17,17,18,18,19,19,20,20,21,21,23,23],"right_children":[2,4,6,8,10,12,14,-1,-1,16,18,20,22,24,26,-1,28,30,32,34,36,38,-1,40,-1,-1,-1,-1,-1,-1,-1,-1,-1,-1,-1,-1,-1,-1,-1,-1,-1],"split_conditions":[-3.402423E-1,-1.3268185E0,1.1799765E0,1.1799765E0,1.1799765E0,6.757419E-1,6.71838E-1,-3.768234E-1,-1.7387466E-1,-7.6383555E-1,-7.6383555E-1,1.5941547E-1,1.4045827E0,1.8509106E-1,1.3006399E0,-2.1289717E-1,9.1545117E-1,-9.5043206E-1,-5.186631E-1,-4.6039128E-1,1.4760004E-1,-1.2160648E0,1.701773E-1,-1.5528291E0,1.5943329E-1,2.2206607E-1,3.2158816E-1,-1.4331421E-1,-6.8894245E-2,-6.0742106E-2,-3.2680266E-2,1.4248922E-2,4.7492363E-2,-9.504195E-2,-4.332172E-2,1.2292682E-2,-3.9946515E-2,2.4229383E-2,8.796037E-2,1.1851438E-2,8.948108E-2],"split_indices":[5,5,6,6,6,5,5,0,0,5,5,5,5,5,5,0,7,5,5,1,10,1,0,7,0,0,0,0,0,0,0,0,0,0,0,0,0,0,0,0,0],"split_type":[0,0,0,0,0,0,0,0,0,0,0,0,0,0,0,0,0,0,0,0,0,0,0,0,0,0,0,0,0,0,0,0,0,0,0,0,0,0,0,0,0],"sum_hessian":[3.37E2,1.21E2,2.16E2,3.6E1,8.5E1,1.19E2,9.7E1,2.4E1,1.2E1,4.9E1,3.6E1,7.5E1,4.4E1,5.7E1,4E1,2E1,2.9E1,1.7E1,1.9E1,3.1E1,4.4E1,2.9E1,1.5E1,3.2E1,2.5E1,2.8E1,1.2E1,2.6E1,3E0,8E0,9E0,1.2E1,7E0,1.3E1,1.8E1,3.6E1,8E0,3E0,2.6E1,2E0,3E1],"tree_param":{"num_deleted":"0","num_feature":"14","num_nodes":"41","size_leaf_vector":"1"}},{"base_weights":[-7.906302E-2,-3.3633814E0,1.7769722E0,-4.789159E0,-1.102447E0,6.090541E-1,3.8004863E0,-6.4800377E0,-3.2392309E0,-2.207551E0,-4.349963E-2,-5.781441E-1,2.2466617E0,2.468256E0,5.030001E0,-4.0571672E-1,-2.6841712E-1,-1.7771953E-1,-1.1300927E-1,-1.6735636E-1,-1.4526073E0,3.174344E-1,-1.1792074E0,-1.4681528E0,8.227461E-2,1.5420271E0,1.5646708E-1,1.9280607E0,1.9673173E-1,1.8951017E-1,2.8099343E-1,-9.118871E-2,-3.8393866E-2,3.1720943E-4,3.3119265E-2,-7.030884E-2,-1.1090279E-3,-7.920278E-2,9.012985E-3,-2.6692916E-2,2.0968648E-2,5.4311533E-2,8.983589E-2,1.8471463E-2,1.0149161E-1],"categories":[],"categories_nodes":[],"categories_segments":[],"categories_sizes":[],"default_left":[0,0,0,0,0,0,0,0,0,0,0,0,0,0,0,0,0,0,0,0,0,0,0,0,0,0,0,0,0,0,0,0,0,0,0,0,0,0,0,0,0,0,0,0,0],"id":11,"left_children":[1,3,5,7,9,11,13,15,17,19,21,23,25,27,29,-1,-1,-1,-1,-1,31,33,35,37,39,41,-1,43,-1,-1,-1,-1,-1,-1,-1,-1,-1,-1,-1,-1,-1,-1,-1,-1,-1],"loss_changes":[1.9078694E3,3.5898584E2,4.703451E2,1.598407E2,5.256509E1,2.5015195E2,1.0715845E2,1.4578369E1,3.6915283E0,1.406488E1,1.02122965E1,4.420417E1,2.876065E1,2.1722626E1,5.7582397E0,0E0,0E0,0E0,0E0,0E0,2.4118023E0,2.0347037E0,1.5444679E0,6.3993225E0,9.362571E0,1.7631378E0,0E0,3.8502274E0,0E0,0E0,0E0,0E0,0E0,0E0,0E0,0E0,0E0,0E0,0E0,0E0,0E0,0E0,0E0,0E0,0E0],"parents":[2147483647,0,0,1,1,2,2,3,3,4,4,5,5,6,6,7,7,8,8,9,9,10,10,11,11,12,12,13,13,14,14,20,20,21,21,22,22,23,23,24,24,25,25,27,27],"right_children":[2,4,6,8,10,12,14,16,18,20,22,24,26,28,30,-1,-1,-1,-1,-1,32,34,36,38,40,42,-1,44,-1,-1,-1,-1,-1,-1,-1,-1,-1,-1,-1,-1,-1,-1,-1,-1,-1],"split_conditions":[-2.9765937E-1,-3.0039948E-1,7.152815E-1,-1.1088169E0,-7.975797E-1,1.1799765E0,1.1799765E0,-1.6664201E0,-4.737633E-1,-1.5075755E0,1.1339387E-2,2.938721E-1,2.6593196E-1,1.612484E0,9.7248876E-1,-4.0571672E-1,-2.6841712E-1,-1.7771953E-1,-1.1300927E-1,-1.6735636E-1,8.8794076E-1,9.64423E-1,6.79978E-1,6.346186E-1,-8.1760657E-1,-2.4048125E-2,1.5646708E-1,-2.0637345E0,1.9673173E-1,1.8951017E-1,2.8099343E-1,-9.118871E-2,-3.8393866E-2,3.1720943E-4,3.3119265E-2,-7.030884E-2,-1.1090279E-3,-7.920278E-2,9.012985E-3,-2.6692916E-2,2.0968648E-2,5.4311533E-2,8.983589E-2,1.8471463E-2,1.0149161E-1],"split_indices":[13,8,13,13,13,6,6,13,13,13,10,13,13,13,13,0,0,0,0,0,1,1,2,1,1,13,0,1,0,0,0,0,0,0,0,0,0,0,0,0,0,0,0,0,0],"split_type":[0,0,0,0,0,0,0,0,0,0,0,0,0,0,0,0,0,0,0,0,0,0,0,0,0,0,0,0,0,0,0,0,0,0,0,0,0,0,0,0,0,0,0,0,0],"sum_hessian":[3.11E2,1.12E2,1.99E2,6.8E1,4.4E1,1.27E2,7.2E1,3.1E1,3.7E1,2.1E1,2.3E1,7.4E1,5.3E1,3.6E1,3.6E1,1E1,2.1E1,2.6E1,1.1E1,7E0,1.4E1,1.8E1,5E0,3.1E1,4.3E1,3.1E1,2.2E1,2.8E1,8E0,1.4E1,2.2E1,8E0,6E0,1E1,8E0,4E0,1E0,2.9E1,2E0,1.5E1,2.8E1,1.3E1,1.8E1,2E0,2.6E1],"tree_param":{"num_deleted":"0","num_feature":"14","num_nodes":"45","size_leaf_vector":"1"}},{"base_weights":[5.703898E-2,-3.117778E0,1.7662816E0,-5.85013E0,-2.0926175E0,5.8048487E-1,3.3766809E0,-3.3589727E-1,-3.0787892E0,-3.1069539E0,-1.9705798E-1,-1.9163747E-1,2.2088354E0,1.7496588E0,4.2308564E0,-1.9063035E-1,-8.646069E-2,-1.9232716E-1,-2.4782815E0,-9.156955E-1,4.0635276E-1,-9.800091E-1,3.4828797E-1,1.27228E0,2.628179E0,1.0932201E0,2.0414495E0,1.789742E-1,2.6284608E-1,-1.3293597E-1,-8.023143E-2,-4.8618905E-2,-4.4705393E-3,7.386617E-3,2.6699413E-2,-5.925071E-2,4.2689133E-2,8.702087E-3,1.1543045E-1,1.0858632E-2,6.683683E-2,1.3539131E-1,1.5925026E-2,1.2513828E-2,5.7354946E-2,2.6294136E-2,1.0454669E-1],"categories":[],"categories_nodes":[],"categories_segments":[],"categories_sizes":[],"default_left":[0,0,0,0,0,0,0,0,0,0,0,0,0,0,0,0,0,0,0,0,0,0,0,0,0,0,0,0,0,0,0,0,0,0,0,0,0,0,0,0,0,0,0,0,0,0,0],"id":12,"left_children":[1,3,5,7,9,11,13,-1,15,17,19,21,23,25,27,-1,-1,-1,29,31,33,35,37,39,41,43,45,-1,-1,-1,-1,-1,-1,-1,-1,-1,-1,-1,-1,-1,-1,-1,-1,-1,-1,-1,-1],"loss_changes":[1.7365708E3,3.0148108E2,3.9523798E2,5.1467163E1,1.5897476E2,1.5255489E2,1.1489661E2,0E0,2.3202667E0,1.5574951E1,1.33811035E1,3.567126E1,1.1973022E1,3.8976135E0,1.927893E1,0E0,0E0,0E0,7.7822876E-1,5.687618E-1,4.8226786E-1,1.3793591E1,1.6677132E1,6.6181755E-1,3.9204712E0,2.5790977E-1,4.753418E-1,0E0,0E0,0E0,0E0,0E0,0E0,0E0,0E0,0E0,0E0,0E0,0E0,0E0,0E0,0E0,0E0,0E0,0E0,0E0,0E0],"parents":[2147483647,0,0,1,1,2,2,3,3,4,4,5,5,6,6,8,8,9,9,10,10,11,11,12,12,13,13,14,14,18,18,19,19,20,20,21,21,22,22,23,23,24,24,25,25,26,26],"right_children":[2,4,6,8,10,12,14,-1,16,18,20,22,24,26,28,-1,-1,-1,30,32,34,36,38,40,42,44,46,-1,-1,-1,-1,-1,-1,-1,-1,-1,-1,-1,-1,-1,-1,-1,-1,-1,-1,-1,-1],"split_conditions":[-3.402423E-1,-1.3268185E0,4.6950954E-1,1.6933793E-1,1.1799765E0,7.8157645E-1,3.1200343E-1,-3.3589727E-1,5.4429483E-2,-7.224283E-1,-7.873793E-1,1.7657317E-1,1.1685885E0,-1.1565185E-1,1.1374838E0,-1.9063035E-1,-8.646069E-2,-1.9232716E-1,8.1430084E-1,1.915819E0,-5.936387E-1,1.1799765E0,1.1799765E0,-2.4126453E0,1.8035887E0,-1.8702651E0,-1.4531981E0,1.789742E-1,2.6284608E-1,-1.3293597E-1,-8.023143E-2,-4.8618905E-2,-4.4705393E-3,7.386617E-3,2.6699413E-2,-5.925071E-2,4.2689133E-2,8.702087E-3,1.1543045E-1,1.0858632E-2,6.683683E-2,1.3539131E-1,1.5925026E-2,1.2513828E-2,5.7354946E-2,2.6294136E-2,1.0454669E-1],"split_indices":[5,5,8,2,6,5,5,0,7,5,5,5,5,5,5,0,0,0,7,3,5,6,6,7,3,7,7,0,0,0,0,0,0,0,0,0,0,0,0,0,0,0,0,0,0,0,0],"split_type":[0,0,0,0,0,0,0,0,0,0,0,0,0,0,0,0,0,0,0,0,0,0,0,0,0,0,0,0,0,0,0,0,0,0,0,0,0,0,0,0,0,0,0,0,0,0,0],"sum_hessian":[3.18E2,1.11E2,2.07E2,2.9E1,8.2E1,1.2E2,8.7E1,2.1E1,8E0,5.3E1,2.9E1,8.2E1,3.8E1,3.1E1,5.6E1,4E0,4E0,2.2E1,3.1E1,1.3E1,1.6E1,3.3E1,4.9E1,1.3E1,2.5E1,1.1E1,2E1,3.7E1,1.9E1,2.4E1,7E0,1.2E1,1E0,6E0,1E1,3E1,3E0,4.6E1,3E0,1E0,1.2E1,2.4E1,1E0,1E0,1E1,1E0,1.9E1],"tree_param":{"num_deleted":"0","num_feature":"14","num_nodes":"47","size_leaf_vector":"1"}},{"base_weights":[4.9593503E-4,-3.2772222E0,1.5547167E0,-4.629487E0,-1.0992813E0,1.9181311E-1,2.782051E0,-6.2070084E0,-2.9565916E0,-2.5551224E0,-3.0368665E-1,-9.4804895E-1,1.6000811E0,1.6312456E0,4.032358E0,-3.932721E-1,-2.5213668E-1,-1.579563E-1,-8.9097515E-2,-1.3294196E-1,-3.0170059E-2,-8.022143E-1,2.948981E-1,-1.7841014E0,-4.1079342E-1,9.761748E-1,2.0851154E0,8.7783587E-1,2.892688E0,1.743512E-1,2.7210388E-1,-4.9642753E-2,-2.2125136E-2,2.1601678E-3,2.2340346E-2,-1.0672801E-1,-5.203548E-2,-3.3868712E-3,-5.0626405E-2,1.3091723E-2,5.1725853E-2,2.5636768E-2,1.06463365E-1,-2.9803684E-3,5.250432E-2,1.0668498E-1,1.7950521E-1],"categories":[],"categories_nodes":[],"categories_segments":[],"categories_sizes":[],"default_left":[0,0,0,0,0,0,0,0,0,0,0,0,0,0,0,0,0,0,0,0,0,0,0,0,0,0,0,0,0,0,0,0,0,0,0,0,0,0,0,0,0,0,0,0,0,0,0],"id":13,"left_children":[1,3,5,7,9,11,13,15,17,19,21,23,25,27,29,-1,-1,-1,-1,-1,-1,31,33,35,37,39,41,43,45,-1,-1,-1,-1,-1,-1,-1,-1,-1,-1,-1,-1,-1,-1,-1,-1,-1,-1],"loss_changes":[1.5996102E3,2.9237134E2,3.5575964E2,1.4526819E2,4.555442E1,1.6525053E2,1.5457465E2,2.0193726E1,1.983551E0,1.2296219E0,8.29367E0,2.4870007E1,1.1884903E1,5.4483673E1,2.1768005E1,0E0,0E0,0E0,0E0,0E0,0E0,5.892954E-1,4.7774696E-1,3.5101624E0,7.362846E0,6.460037E-1,6.43837E-1,6.3601227E0,3.985077E0,0E0,0E0,0E0,0E0,0E0,0E0,0E0,0E0,0E0,0E0,0E0,0E0,0E0,0E0,0E0,0E0,0E0,0E0],"parents":[2147483647,0,0,1,1,2,2,3,3,4,4,5,5,6,6,7,7,8,8,9,9,10,10,11,11,12,12,13,13,14,14,21,21,22,22,23,23,24,24,25,25,26,26,27,27,28,28],"right_children":[2,4,6,8,10,12,14,16,18,20,22,24,26,28,30,-1,-1,-1,-1,-1,-1,32,34,36,38,40,42,44,46,-1,-1,-1,-1,-1,-1,-1,-1,-1,-1,-1,-1,-1,-1,-1,-1,-1,-1],"split_conditions":[-4.0932867E-1,1.1799765E0,5.0680006E-1,-1.0270511E0,-1.2321867E0,1.1799765E0,1.1799765E0,-1.7936298E0,3.0463794E-1,1.5896734E0,-6.761891E-1,8.111892E-2,-1.3713441E-2,1.1376694E0,1.1681439E0,-3.932721E-1,-2.5213668E-1,-1.579563E-1,-8.9097515E-2,-1.3294196E-1,-3.0170059E-2,7.810972E-1,4.6473664E-1,-2.827387E-1,1.06884286E-1,-3.8263875E-1,-1.4497079E0,-1.386179E0,1.6719922E0,1.743512E-1,2.7210388E-1,-4.9642753E-2,-2.2125136E-2,2.1601678E-3,2.2340346E-2,-1.0672801E-1,-5.203548E-2,-3.3868712E-3,-5.0626405E-2,1.3091723E-2,5.1725853E-2,2.5636768E-2,1.06463365E-1,-2.9803684E-3,5.250432E-2,1.0668498E-1,1.7950521E-1],"split_indices":[13,6,13,13,13,6,6,13,1,1,13,13,13,13,13,0,0,0,0,0,0,1,1,1,10,13,1,1,13,0,0,0,0,0,0,0,0,0,0,0,0,0,0,0,0,0,0],"split_type":[0,0,0,0,0,0,0,0,0,0,0,0,0,0,0,0,0,0,0,0,0,0,0,0,0,0,0,0,0,0,0,0,0,0,0,0,0,0,0,0,0,0,0,0,0,0,0],"sum_hessian":[3.12E2,1E2,2.12E2,6.1E1,3.9E1,1.01E2,1.11E2,3E1,3.1E1,1.3E1,2.6E1,5.6E1,4.5E1,5.9E1,5.2E1,1E1,2E1,2.5E1,6E0,1.2E1,1E0,1.4E1,1.2E1,2.1E1,3.5E1,2.1E1,2.4E1,3.8E1,2.1E1,4E1,1.2E1,8E0,6E0,5E0,7E0,1.3E1,8E0,2.3E1,1.2E1,2E0,1.9E1,1E0,2.3E1,6E0,3.2E1,1.2E1,9E0],"tree_param":{"num_deleted":"0","num_feature":"14","num_nodes":"47","size_leaf_vector":"1"}},{"base_weights":[-1.15950935E-1,-3.2343307E0,1.4064925E0,-3.7543005E-1,-2.5256329E0,4.8028836E-1,3.2388082E0,-3.7083008E0,-9.143071E-1,-6.831267E-1,1.8332E0,2.037808E0,2.0705989E-1,-2.2781482E-1,-1.3588391E-1,-1.9322734E0,-1.2214478E-1,-1.4126402E0,8.356155E-2,1.1679884E0,1.2851737E-1,1.3356507E0,1.5483828E-1,-1.2069609E-1,-6.1796404E-2,-2.8464457E-2,1.3280193E-2,-8.1676E-2,-3.0436859E-2,-2.0200102E-2,1.7662736E-2,2.8184278E-2,6.602574E-2,8.597819E-3,7.245472E-2],"categories":[],"categories_nodes":[],"categories_segments":[],"categories_sizes":[],"default_left":[0,0,0,0,0,0,0,0,0,0,0,0,0,0,0,0,0,0,0,0,0,0,0,0,0,0,0,0,0,0,0,0,0,0,0],"id":14,"left_children":[1,3,5,-1,7,9,11,13,15,17,19,21,-1,-1,-1,23,25,27,29,31,-1,33,-1,-1,-1,-1,-1,-1,-1,-1,-1,-1,-1,-1,-1],"loss_changes":[1.4762916E3,2.90011E2,3.5313794E2,0E0,1.662135E2,2.21612E2,6.742493E1,3.0459656E1,3.1213367E1,4.2625553E1,2.8871185E1,1.9657547E1,0E0,0E0,0E0,2.718258E0,4.1389365E0,5.930687E0,5.139433E0,2.5738373E0,0E0,2.5231133E0,0E0,0E0,0E0,0E0,0E0,0E0,0E0,0E0,0E0,0E0,0E0,0E0,0E0],"parents":[2147483647,0,0,1,1,2,2,4,4,5,5,6,6,7,7,8,8,9,9,10,10,11,11,15,15,16,16,17,17,18,18,19,19,21,21],"right_children":[2,4,6,-1,8,10,12,14,16,18,20,22,-1,-1,-1,24,26,28,30,32,-1,34,-1,-1,-1,-1,-1,-1,-1,-1,-1,-1,-1,-1,-1],"split_conditions":[-5.244158E-1,-1.6785274E0,7.053751E-1,-3.7543005E-1,1.1799765E0,1.1799765E0,1.1799765E0,-8.734874E-1,-1.0063324E0,2.1608315E-1,1.09535016E-1,1.4045827E0,2.0705989E-1,-2.2781482E-1,-1.3588391E-1,-1.4636607E0,-7.6383555E-1,4.1903907E-1,-3.9132077E-1,-3.981113E-1,1.2851737E-1,-1.6339825E0,1.5483828E-1,-1.2069609E-1,-6.1796404E-2,-2.8464457E-2,1.3280193E-2,-8.1676E-2,-3.0436859E-2,-2.0200102E-2,1.7662736E-2,2.8184278E-2,6.602574E-2,8.597819E-3,7.245472E-2],"split_indices":[5,5,5,0,6,6,6,5,5,5,5,5,0,0,0,5,5,7,7,5,0,7,0,0,0,0,0,0,0,0,0,0,0,0,0],"split_type":[0,0,0,0,0,0,0,0,0,0,0,0,0,0,0,0,0,0,0,0,0,0,0,0,0,0,0,0,0,0,0,0,0,0,0],"sum_hessian":[3.09E2,1.01E2,2.08E2,1.3E1,8.8E1,1.39E2,6.9E1,5E1,3.8E1,7.5E1,6.4E1,3.1E1,3.8E1,2.5E1,2.5E1,1.6E1,2.2E1,3.8E1,3.7E1,3.5E1,2.9E1,2E1,1.1E1,8E0,8E0,1E1,1.2E1,2.9E1,9E0,1.3E1,2.4E1,8E0,2.7E1,2E0,1.8E1],"tree_param":{"num_deleted":"0","num_feature":"14","num_nodes":"35","size_leaf_vector":"1"}},{"base_weights":[9.819115E-3,-2.9270716E0,1.3180258E0,-4.0872216E0,-1.0671725E0,2.2791561E-1,2.6979809E0,-7.0933733E0,-3.4176383E0,-2.8313527E0,-4.4354007E-1,-7.66734E-1,1.531475E0,1.7351564E0,4.2124214E0,-3.7052676E-1,-1.0597296E-1,-2.1013828E-1,-1.2505317E-1,-1.5534101E-1,-5.7649422E-2,-8.2692754E-1,2.9384995E-1,-1.5895966E0,-3.6484474E-1,7.35106E-1,2.3608298E0,1.1724023E0,1.2493131E-1,1.6679017E-1,2.4762093E-1,-5.6468498E-2,-2.6559258E-2,1.2182618E-3,2.2218024E-2,-9.2489794E-2,-4.8965476E-2,-5.8793522E-2,-6.336946E-3,-1.1871481E-2,4.2822678E-2,1.00249045E-1,1.7272E-1,4.2381894E-2,8.2269914E-2],"categories":[],"categories_nodes":[],"categories_segments":[],"categories_sizes":[],"default_left":[0,0,0,0,0,0,0,0,0,0,0,0,0,0,0,0,0,0,0,0,0,0,0,0,0,0,0,0,0,0,0,0,0,0,0,0,0,0,0,0,0,0,0,0,0],"id":15,"left_children":[1,3,5,7,9,11,13,15,17,19,21,23,25,27,29,-1,-1,-1,-1,-1,-1,31,33,35,37,39,41,43,-1,-1,-1,-1,-1,-1,-1,-1,-1,-1,-1,-1,-1,-1,-1,-1,-1],"loss_changes":[1.221791E3,2.0709894E2,3.3033173E2,9.652948E1,4.1651974E1,1.6195076E2,1.3413037E2,6.903076E-2,2.6189636E1,1.0412216E0,8.724175E0,2.2899712E1,3.393006E1,2.3278992E1,7.4814453E0,0E0,0E0,0E0,0E0,0E0,0E0,1.1889963E0,4.3533617E-1,1.8407936E0,9.313357E0,3.6257772E0,3.1917725E0,4.288952E0,0E0,0E0,0E0,0E0,0E0,0E0,0E0,0E0,0E0,0E0,0E0,0E0,0E0,0E0,0E0,0E0,0E0],"parents":[2147483647,0,0,1,1,2,2,3,3,4,4,5,5,6,6,7,7,8,8,9,9,10,10,11,11,12,12,13,13,14,14,21,21,22,22,23,23,24,24,25,25,26,26,27,27],"right_children":[2,4,6,8,10,12,14,16,18,20,22,24,26,28,30,-1,-1,-1,-1,-1,-1,32,34,36,38,40,42,44,-1,-1,-1,-1,-1,-1,-1,-1,-1,-1,-1,-1,-1,-1,-1,-1,-1],"split_conditions":[-5.3170675E-1,1.1799765E0,1.1799765E0,-1.5845064E0,-1.3268185E0,5.549852E-1,6.362692E-1,2.5824946E-1,-9.2968297E-1,-1.4636607E0,-7.6383555E-1,-1.5562835E-2,1.1685885E0,1.8509106E-1,1.1133347E0,-3.7052676E-1,-1.0597296E-1,-2.1013828E-1,-1.2505317E-1,-1.5534101E-1,-5.7649422E-2,-1.0063324E0,9.64423E-1,-2.827387E-1,-1.2329198E0,-1.5843605E0,2.126968E0,9.757646E-1,1.2493131E-1,1.6679017E-1,2.4762093E-1,-5.6468498E-2,-2.6559258E-2,1.2182618E-3,2.2218024E-2,-9.2489794E-2,-4.8965476E-2,-5.8793522E-2,-6.336946E-3,-1.1871481E-2,4.2822678E-2,1.00249045E-1,1.7272E-1,4.2381894E-2,8.2269914E-2],"split_indices":[5,6,6,5,5,5,5,1,5,5,5,5,5,5,5,0,0,0,0,0,0,5,1,1,1,1,5,1,0,0,0,0,0,0,0,0,0,0,0,0,0,0,0,0,0],"split_type":[0,0,0,0,0,0,0,0,0,0,0,0,0,0,0,0,0,0,0,0,0,0,0,0,0,0,0,0,0,0,0,0,0,0,0,0,0,0,0,0,0,0,0,0,0],"sum_hessian":[3.16E2,9.7E1,2.19E2,5.9E1,3.8E1,1.23E2,9.6E1,9E0,5E1,9E0,2.9E1,7E1,5.3E1,6E1,3.6E1,8E0,1E0,2.5E1,2.5E1,7E0,2E0,1.9E1,1E1,2.2E1,4.8E1,2.8E1,2.5E1,3.6E1,2.4E1,1.9E1,1.7E1,8E0,1.1E1,4E0,6E0,1.4E1,8E0,1E1,3.8E1,3E0,2.5E1,2.1E1,4E0,2.3E1,1.3E1],"tree_param":{"num_deleted":"0","num_feature":"14","num_nodes":"45","size_leaf_vector":"1"}},{"base_weights":[-2.1864556E-2,-2.92406E0,1.2835337E0,-5.4377975E0,-1.8299003E0,2.0464805E-1,2.3299544E0,-4.1002163E-1,-4.480684E0,-2.6744845E0,-2.052501E-1,-7.541131E-1,1.2551923E0,1.3807802E0,3.4481068E0,-4.8198338E0,-8.323822E-2,-1.6562916E-1,-1.8178725E0,-7.428551E-1,2.3181452E-1,-1.4036331E0,-3.4285498E-1,8.904824E-1,9.8727286E-2,7.4059135E-1,2.2218134E0,2.8869493E0,2.245095E-1,-5.694866E-2,-2.4768086E-1,-2.5571538E-2,-1.0036E-1,-2.4300576E-3,-4.037102E-2,1.6761303E-3,2.1265876E-2,1.3190937E-2,-7.500984E-2,-3.7388913E-2,6.4937146E-3,4.9032576E-2,-5.4381657E-2,1.924828E-2,5.4724555E-2,8.848994E-2,1.5656541E-1,1.5385254E-1,9.422441E-2],"categories":[],"categories_nodes":[],"categories_segments":[],"categories_sizes":[],"default_left":[0,0,0,0,0,0,0,0,0,0,0,0,0,0,0,0,0,0,0,0,0,0,0,0,0,0,0,0,0,0,0,0,0,0,0,0,0,0,0,0,0,0,0,0,0,0,0,0,0],"id":16,"left_children":[1,3,5,7,9,11,13,-1,15,17,19,21,23,25,27,29,-1,-1,31,33,35,37,39,41,-1,43,45,47,-1,-1,-1,-1,-1,-1,-1,-1,-1,-1,-1,-1,-1,-1,-1,-1,-1,-1,-1,-1,-1],"loss_changes":[1.1478865E3,2.4858972E2,2.3547751E2,3.7292847E1,9.138536E1,1.0569754E2,1.0773901E2,0E0,1.3941528E1,1.8028656E1,5.8114395E0,1.4210381E1,1.1359467E1,3.0121323E1,1.5106201E1,4.2066956E0,0E0,0E0,4.1677094E0,4.5383024E-1,5.2292335E-1,3.7770996E0,6.796786E0,7.3093586E0,0E0,3.983614E0,4.73584E0,6.8066406E-1,0E0,0E0,0E0,0E0,0E0,0E0,0E0,0E0,0E0,0E0,0E0,0E0,0E0,0E0,0E0,0E0,0E0,0E0,0E0,0E0,0E0],"parents":[2147483647,0,0,1,1,2,2,3,3,4,4,5,5,6,6,8,8,9,9,10,10,11,11,12,12,13,13,14,14,15,15,18,18,19,19,20,20,21,21,22,22,23,23,25,25,26,26,27,27],"right_children":[2,4,6,8,10,12,14,-1,16,18,20,22,24,26,28,30,-1,-1,32,34,36,38,40,42,-1,44,46,48,-1,-1,-1,-1,-1,-1,-1,-1,-1,-1,-1,-1,-1,-1,-1,-1,-1,-1,-1,-1,-1],"split_conditions":[-5.131165E-1,-1.3268185E0,4.5810464E-1,-2.1301286E0,4.7115597E-1,1.3906918E-1,2.5339615E-1,-4.1002163E-1,5.993893E-1,-4.3880135E-1,-8.5402036E-1,-1.5562835E-2,1.0053414E0,1.1685885E0,1.1374838E0,-1.349859E0,-8.323822E-2,-1.6562916E-1,-8.201877E-1,-5.6477465E-2,9.64423E-1,-1.3337367E0,-3.9255717E-1,1.0844814E0,9.8727286E-2,-1.8064307E-1,1.9836956E0,1.5585181E-2,2.245095E-1,-5.694866E-2,-2.4768086E-1,-2.5571538E-2,-1.0036E-1,-2.4300576E-3,-4.037102E-2,1.6761303E-3,2.1265876E-2,1.3190937E-2,-7.500984E-2,-3.7388913E-2,6.4937146E-3,4.9032576E-2,-5.4381657E-2,1.924828E-2,5.4724555E-2,8.848994E-2,1.5656541E-1,1.5385254E-1,9.422441E-2],"split_indices":[5,5,5,5,2,12,8,0,1,1,5,5,1,5,5,9,0,0,9,4,1,0,1,4,0,1,5,10,0,0,0,0,0,0,0,0,0,0,0,0,0,0,0,0,0,0,0,0,0],"split_type":[0,0,0,0,0,0,0,0,0,0,0,0,0,0,0,0,0,0,0,0,0,0,0,0,0,0,0,0,0,0,0,0,0,0,0,0,0,0,0,0,0,0,0,0,0,0,0,0,0],"sum_hessian":[3.01E2,9.3E1,2.08E2,2.7E1,6.6E1,1.03E2,1.05E2,5E0,2.2E1,4.3E1,2.3E1,5.4E1,4.9E1,5.8E1,4.7E1,1.9E1,3E0,2.3E1,2E1,1E1,1.3E1,2E1,3.4E1,3.4E1,1.5E1,3.4E1,2.4E1,3.3E1,1.4E1,1E0,1.8E1,3E0,1.7E1,1E0,9E0,7E0,6E0,1E0,1.9E1,1.8E1,1.6E1,3.3E1,1E0,1.8E1,1.6E1,1.8E1,6E0,2.6E1,7E0],"tree_param":{"num_deleted":"0","num_feature":"14","num_nodes":"49","size_leaf_vector":"1"}},{"base_weights":[-1.667453E-1,-2.6542494E0,1.3057925E0,-3.288798E-1,-2.0784383E0,5.321319E-1,2.6355178E0,-2.9846609E0,-7.5592476E-1,-3.5345072E-1,1.7310596E0,1.8137064E0,3.8771546E0,-1.9544154E-1,-2.2392635E0,-9.502782E-2,-1.7727767E-1,-1.2781321E0,-6.1213754E-2,1.2832496E0,1.1655026E-1,1.1610984E0,2.4135373E0,1.684345E-1,2.7203307E-1,-1.2095914E-1,-7.737736E-2,-3.2238342E-2,1.8482916E-2,-2.9776955E-2,-7.21175E-2,-3.0779922E-2,8.103523E-3,6.88635E-2,1.4039421E-2,1.8220967E-2,6.810763E-2,2.1101762E-2,1.2441369E-1],"categories":[],"categories_nodes":[],"categories_segments":[],"categories_sizes":[],"default_left":[0,0,0,0,0,0,0,0,0,0,0,0,0,0,0,0,0,0,0,0,0,0,0,0,0,0,0,0,0,0,0,0,0,0,0,0,0,0,0],"id":17,"left_children":[1,3,5,-1,7,9,11,13,15,17,19,21,23,-1,25,-1,27,29,31,33,-1,35,37,-1,-1,-1,-1,-1,-1,-1,-1,-1,-1,-1,-1,-1,-1,-1,-1],"loss_changes":[1.1133379E3,2.4160779E2,1.9509003E2,0E0,1.1759299E2,1.3014528E2,6.4395386E1,3.1890686E1,2.7481256E1,1.910781E1,1.0979141E1,1.4421631E1,3.1367798E0,0E0,6.1206055E-1,0E0,7.653256E0,1.0466232E0,6.9079647E0,2.6293411E0,0E0,3.1876469E0,2.2243042E0,0E0,0E0,0E0,0E0,0E0,0E0,0E0,0E0,0E0,0E0,0E0,0E0,0E0,0E0,0E0,0E0],"parents":[2147483647,0,0,1,1,2,2,4,4,5,5,6,6,7,7,8,8,9,9,10,10,11,11,12,12,14,14,16,16,17,17,18,18,19,19,21,21,22,22],"right_children":[2,4,6,-1,8,10,12,14,16,18,20,22,24,-1,26,-1,28,30,32,34,-1,36,38,-1,-1,-1,-1,-1,-1,-1,-1,-1,-1,-1,-1,-1,-1,-1,-1],"split_conditions":[-3.77933E-1,-1.6785274E0,6.9308007E-1,-3.288798E-1,1.1799765E0,1.1799765E0,1.5189904E-1,-9.2968297E-1,-1.2447383E0,-1.0303559E-2,2.0154299E-1,1.3006399E0,1.6354284E0,-1.9544154E-1,4.745629E-2,-9.502782E-2,-7.6383555E-1,5.4184847E-2,-9.566933E-1,3.7163906E-2,1.1655026E-1,-1.2160648E0,-1.5365175E0,1.684345E-1,2.7203307E-1,-1.2095914E-1,-7.737736E-2,-3.2238342E-2,1.8482916E-2,-2.9776955E-2,-7.21175E-2,-3.0779922E-2,8.103523E-3,6.88635E-2,1.4039421E-2,1.8220967E-2,6.810763E-2,2.1101762E-2,1.2441369E-1],"split_indices":[5,5,5,0,6,6,2,5,5,5,5,5,5,0,1,0,5,10,1,10,0,1,1,0,0,0,0,0,0,0,0,0,0,0,0,0,0,0,0],"split_type":[0,0,0,0,0,0,0,0,0,0,0,0,0,0,0,0,0,0,0,0,0,0,0,0,0,0,0,0,0,0,0,0,0,0,0,0,0,0,0],"sum_hessian":[3.02E2,1.12E2,1.9E2,1.3E1,9.9E1,1.21E2,6.9E1,5.8E1,4.1E1,7E1,5.1E1,4.3E1,2.6E1,2.4E1,3.4E1,1.3E1,2.8E1,1.6E1,5.4E1,3.1E1,2E1,2.2E1,2.1E1,2.2E1,4E0,2.5E1,9E0,1.5E1,1.3E1,4E0,1.2E1,1.5E1,3.9E1,2.8E1,3E0,5E0,1.7E1,1E0,2E1],"tree_param":{"num_deleted":"0","num_feature":"14","num_nodes":"39","size_leaf_vector":"1"}},{"base_weights":[-9.119654E-2,-2.4043725E0,1.2858701E0,-4.2642865E0,-1.5445948E0,2.8345042E-1,2.5635903E0,-4.9704814E0,-2.319991E0,-2.3542657E0,-1.3000643E-1,-3.4158257E-1,1.5754019E0,1.7057667E0,3.6416218E0,-2.9940423E-1,-1.9483118E-1,-1.4857416E-1,-7.1507104E-2,-1.4294031E-1,-1.8877099E0,-7.0121104E-1,3.5322E-1,-8.731855E-1,7.94771E-2,1.2160617E0,2.104552E0,9.6000606E-1,2.010549E0,1.553878E-1,2.29192E-1,-1.06353596E-1,-6.295681E-2,-4.484461E-2,-1.2910366E-2,1.3123103E-3,2.5725985E-2,-8.688806E-2,-3.3558212E-2,-2.2186013E-2,1.6503667E-2,1.7180061E-2,6.597077E-2,2.0574188E-2,1.10156775E-1,1.2858073E-3,5.414318E-2,6.687605E-2,1.09267704E-1],"categories":[],"categories_nodes":[],"categories_segments":[],"categories_sizes":[],"default_left":[0,0,0,0,0,0,0,0,0,0,0,0,0,0,0,0,0,0,0,0,0,0,0,0,0,0,0,0,0,0,0,0,0,0,0,0,0,0,0,0,0,0,0,0,0,0,0,0,0],"id":18,"left_children":[1,3,5,7,9,11,13,15,17,19,21,23,25,27,29,-1,-1,-1,-1,-1,31,33,35,37,39,41,43,45,47,-1,-1,-1,-1,-1,-1,-1,-1,-1,-1,-1,-1,-1,-1,-1,-1,-1,-1,-1,-1],"loss_changes":[1.0415312E3,1.8850513E2,2.618398E2,4.064453E1,9.704877E1,9.4209564E1,7.701672E1,6.1712646E0,2.7071152E0,7.3148193E0,9.0803585E0,1.7752487E1,4.666237E0,9.889175E0,5.3722534E0,0E0,0E0,0E0,0E0,0E0,1.9858932E0,1.0687289E0,9.3582964E-1,4.9468727E0,6.046468E0,1.8009491E0,1.4301643E0,1.9234896E0,1.3123932E0,0E0,0E0,0E0,0E0,0E0,0E0,0E0,0E0,0E0,0E0,0E0,0E0,0E0,0E0,0E0,0E0,0E0,0E0,0E0,0E0],"parents":[2147483647,0,0,1,1,2,2,3,3,4,4,5,5,6,6,7,7,8,8,9,9,10,10,11,11,12,12,13,13,14,14,20,20,21,21,22,22,23,23,24,24,25,25,26,26,27,27,28,28],"right_children":[2,4,6,8,10,12,14,16,18,20,22,24,26,28,30,-1,-1,-1,-1,-1,32,34,36,38,40,42,44,46,48,-1,-1,-1,-1,-1,-1,-1,-1,-1,-1,-1,-1,-1,-1,-1,-1,-1,-1,-1,-1],"split_conditions":[-3.402423E-1,-1.2448717E0,1.1799765E0,1.1799765E0,1.1799765E0,6.9308007E-1,6.71838E-1,-1.5845064E0,-1.5998368E0,-7.6383555E-1,-7.873793E-1,2.1608315E-1,1.4045827E0,-1.0303559E-2,1.485092E0,-2.9940423E-1,-1.9483118E-1,-1.4857416E-1,-7.1507104E-2,-1.4294031E-1,-3.2751423E-1,8.8794076E-1,4.6473664E-1,-1.4321383E0,-8.1760657E-1,-6.04066E-1,-1.6895677E0,-1.0677705E0,1.3068272E-1,1.553878E-1,2.29192E-1,-1.06353596E-1,-6.295681E-2,-4.484461E-2,-1.2910366E-2,1.3123103E-3,2.5725985E-2,-8.688806E-2,-3.3558212E-2,-2.2186013E-2,1.6503667E-2,1.7180061E-2,6.597077E-2,2.0574188E-2,1.10156775E-1,1.2858073E-3,5.414318E-2,6.687605E-2,1.09267704E-1],"split_indices":[5,5,6,6,6,5,5,5,5,5,5,5,5,5,5,0,0,0,0,0,1,1,1,1,1,7,3,1,1,0,0,0,0,0,0,0,0,0,0,0,0,0,0,0,0,0,0,0,0],"split_type":[0,0,0,0,0,0,0,0,0,0,0,0,0,0,0,0,0,0,0,0,0,0,0,0,0,0,0,0,0,0,0,0,0,0,0,0,0,0,0,0,0,0,0,0,0,0,0,0,0],"sum_hessian":[3.25E2,1.21E2,2.04E2,3.7E1,8.4E1,1.15E2,8.9E1,2.6E1,1.1E1,5.3E1,3.1E1,7.8E1,3.7E1,5.1E1,3.8E1,1.1E1,1.5E1,5E0,6E0,2.3E1,3E1,1.4E1,1.7E1,3.4E1,4.4E1,2.4E1,1.3E1,1.6E1,3.5E1,2.7E1,1.1E1,2E1,1E1,9E0,5E0,6E0,1.1E1,5E0,2.9E1,1.4E1,3E1,3E0,2.1E1,1E0,1.2E1,2E0,1.4E1,9E0,2.6E1],"tree_param":{"num_deleted":"0","num_feature":"14","num_nodes":"49","size_leaf_vector":"1"}},{"base_weights":[-3.036161E-2,-2.966814E0,8.9195555E-1,-3.2173058E-1,-2.3438962E0,1.0593128E-2,2.2322507E0,-3.1534169E0,-1.1326388E0,-7.6398057E-1,1.0270556E0,1.2477295E0,3.2752576E0,-1.7592423E-1,-1.1250951E-1,-1.6453781E0,-5.7857287E-1,-1.5227878E0,-1.9089812E-1,5.0587225E-1,1.5655452E0,6.730197E-1,1.8662356E0,2.7658074E0,2.1778615E-1,-8.532244E-2,-2.1286488E-2,-3.895359E-2,-1.1906761E-2,-8.908387E-2,-4.2826783E-2,-5.842721E-2,-2.662208E-3,1.4363021E-2,4.184588E-2,8.076571E-2,2.8129896E-2,1.113609E-2,4.5540586E-2,9.782791E-3,9.651814E-2,6.968246E-2,1.4268203E-1],"categories":[],"categories_nodes":[],"categories_segments":[],"categories_sizes":[],"default_left":[0,0,0,0,0,0,0,0,0,0,0,0,0,0,0,0,0,0,0,0,0,0,0,0,0,0,0,0,0,0,0,0,0,0,0,0,0,0,0,0,0,0,0],"id":19,"left_children":[1,3,5,-1,7,9,11,13,15,17,19,21,23,-1,-1,25,27,29,31,33,35,37,39,41,-1,-1,-1,-1,-1,-1,-1,-1,-1,-1,-1,-1,-1,-1,-1,-1,-1,-1,-1],"loss_changes":[8.6119025E2,1.4908954E2,2.8584753E2,0E0,6.114383E1,1.16521454E2,9.4492096E1,4.942566E0,7.00259E0,3.623747E1,1.7169746E1,1.687252E1,1.3273315E1,0E0,0E0,3.1629944E-1,8.3833694E-1,4.6834183E0,6.5320473E0,2.2201824E0,6.3861084E-1,2.7953072E0,2.1934204E0,1.2072754E-1,0E0,0E0,0E0,0E0,0E0,0E0,0E0,0E0,0E0,0E0,0E0,0E0,0E0,0E0,0E0,0E0,0E0,0E0,0E0],"parents":[2147483647,0,0,1,1,2,2,4,4,5,5,6,6,7,7,8,8,9,9,10,10,11,11,12,12,15,15,16,16,17,17,18,18,19,19,20,20,21,21,22,22,23,23],"right_children":[2,4,6,-1,8,10,12,14,16,18,20,22,24,-1,-1,26,28,30,32,34,36,38,40,42,-1,-1,-1,-1,-1,-1,-1,-1,-1,-1,-1,-1,-1,-1,-1,-1,-1,-1,-1],"split_conditions":[-6.561547E-1,-1.6785274E0,5.902991E-1,-3.2173058E-1,1.1799765E0,1.1799765E0,1.1799765E0,-9.2968297E-1,-1.2447383E0,-1.5562835E-2,-1.1565185E-1,1.1382538E0,1.485092E0,-1.7592423E-1,-1.1250951E-1,1.5896734E0,8.2350594E-1,-2.827387E-1,-1.8622268E0,2.92214E-1,3.6201987E-2,-7.5196564E-1,-2.0637345E0,-7.188004E-1,2.1778615E-1,-8.532244E-2,-2.1286488E-2,-3.895359E-2,-1.1906761E-2,-8.908387E-2,-4.2826783E-2,-5.842721E-2,-2.662208E-3,1.4363021E-2,4.184588E-2,8.076571E-2,2.8129896E-2,1.113609E-2,4.5540586E-2,9.782791E-3,9.651814E-2,6.968246E-2,1.4268203E-1],"split_indices":[5,5,5,0,6,6,6,5,5,5,5,5,5,0,0,1,1,1,1,7,10,1,1,1,0,0,0,0,0,0,0,0,0,0,0,0,0,0,0,0,0,0,0],"split_type":[0,0,0,0,0,0,0,0,0,0,0,0,0,0,0,0,0,0,0,0,0,0,0,0,0,0,0,0,0,0,0,0,0,0,0,0,0,0,0,0,0,0,0],"sum_hessian":[3.16E2,7.5E1,2.41E2,1E1,6.5E1,1.46E2,9.5E1,3.8E1,2.7E1,8.3E1,6.3E1,5E1,4.5E1,2.5E1,1.3E1,1.3E1,1.4E1,3.5E1,4.8E1,3.3E1,3E1,2.7E1,2.3E1,3.3E1,1.2E1,1.2E1,1E0,8E0,6E0,2.4E1,1.1E1,5E0,4.3E1,2.1E1,1.2E1,2.8E1,2E0,1E1,1.7E1,1E0,2.2E1,3E0,3E1],"tree_param":{"num_deleted":"0","num_feature":"14","num_nodes":"43","size_leaf_vector":"1"}},{"base_weights":[-3.528458E-2,-2.497329E0,1.0651658E0,-3.421828E0,-8.0571395E-1,1.1723799E-1,2.012056E0,-4.856101E0,-2.4040048E0,-1.7436646E0,-2.8575104E-1,-8.00277E-1,1.1160319E0,1.2259119E0,2.8789003E0,-3.5335335E-1,-1.9965768E-1,-1.3649808E-1,-8.39373E-2,-9.098945E-2,-2.0754337E-2,-5.361352E-1,1.4343873E-1,-1.0613137E0,-1.3222949E-1,6.511619E-1,1.4817181E0,5.636894E-1,2.038944E0,2.4402337E0,1.9632988E-1,-3.632885E-2,-1.2743569E-2,-5.078125E-4,1.2376404E-2,-7.2630234E-2,-3.607401E-2,1.8294303E-2,-1.7597875E-2,1.8037224E-2,4.371619E-2,4.7731955E-2,8.4876284E-2,-7.300377E-3,3.731641E-2,8.182019E-2,1.4776437E-1,1.303583E-1,8.393603E-2],"categories":[],"categories_nodes":[],"categories_segments":[],"categories_sizes":[],"default_left":[0,0,0,0,0,0,0,0,0,0,0,0,0,0,0,0,0,0,0,0,0,0,0,0,0,0,0,0,0,0,0,0,0,0,0,0,0,0,0,0,0,0,0,0,0,0,0,0,0],"id":20,"left_children":[1,3,5,7,9,11,13,15,17,19,21,23,25,27,29,-1,-1,-1,-1,-1,-1,31,33,35,37,39,41,43,45,47,-1,-1,-1,-1,-1,-1,-1,-1,-1,-1,-1,-1,-1,-1,-1,-1,-1,-1,-1],"loss_changes":[8.8591064E2,1.5519653E2,2.0261798E2,8.321521E1,1.7546629E1,1.05363686E2,7.347623E1,2.1386719E1,4.8731995E0,5.594101E-1,2.7634606E0,1.0322758E1,8.384972E0,3.1693573E1,1.4776428E1,0E0,0E0,0E0,0E0,0E0,0E0,6.718464E-1,1.6239E-1,4.6698494E0,2.0988748E0,1.3696547E0,1.7919006E0,4.645607E0,5.123314E0,7.0814514E-1,0E0,0E0,0E0,0E0,0E0,0E0,0E0,0E0,0E0,0E0,0E0,0E0,0E0,0E0,0E0,0E0,0E0,0E0,0E0],"parents":[2147483647,0,0,1,1,2,2,3,3,4,4,5,5,6,6,7,7,8,8,9,9,10,10,11,11,12,12,13,13,14,14,21,21,22,22,23,23,24,24,25,25,26,26,27,27,28,28,29,29],"right_children":[2,4,6,8,10,12,14,16,18,20,22,24,26,28,30,-1,-1,-1,-1,-1,-1,32,34,36,38,40,42,44,46,48,-1,-1,-1,-1,-1,-1,-1,-1,-1,-1,-1,-1,-1,-1,-1,-1,-1,-1,-1],"split_conditions":[-5.244158E-1,1.1799765E0,4.5167032E-1,-1.3268185E0,-1.2447383E0,1.1799765E0,1.1799765E0,-2.1301286E0,-7.224283E-1,1.5896734E0,-7.6383555E-1,2.6774183E-1,-1.1565185E-1,1.196916E0,1.2203255E0,-3.5335335E-1,-1.9965768E-1,-1.3649808E-1,-8.39373E-2,-9.098945E-2,-2.0754337E-2,7.810972E-1,9.64423E-1,-6.8579644E-1,5.355649E-2,7.1477216E-1,1.5038812E-1,-1.0770999E0,2.126968E0,1.600379E-2,1.9632988E-1,-3.632885E-2,-1.2743569E-2,-5.078125E-4,1.2376404E-2,-7.2630234E-2,-3.607401E-2,1.8294303E-2,-1.7597875E-2,1.8037224E-2,4.371619E-2,4.7731955E-2,8.4876284E-2,-7.300377E-3,3.731641E-2,8.182019E-2,1.4776437E-1,1.303583E-1,8.393603E-2],"split_indices":[5,11,5,5,5,11,11,5,5,1,5,5,5,5,5,0,0,0,0,0,0,1,1,1,10,1,1,1,5,10,0,0,0,0,0,0,0,0,0,0,0,0,0,0,0,0,0,0,0],"split_type":[0,0,0,0,0,0,0,0,0,0,0,0,0,0,0,0,0,0,0,0,0,0,0,0,0,0,0,0,0,0,0,0,0,0,0,0,0,0,0,0,0,0,0,0,0,0,0,0,0],"sum_hessian":[3.25E2,1E2,2.25E2,6.4E1,3.6E1,1.13E2,1.12E2,2.5E1,3.9E1,1.2E1,2.4E1,5.9E1,5.4E1,6E1,5.2E1,5E0,2E1,2.5E1,1.4E1,1.1E1,1E0,1.5E1,9E0,4.2E1,1.7E1,2.5E1,2.9E1,3.4E1,2.6E1,3.9E1,1.3E1,8E0,7E0,4E0,5E0,1.8E1,2.4E1,5E0,1.2E1,1.2E1,1.3E1,1E1,1.9E1,7E0,2.7E1,2E1,6E0,3E1,9E0],"tree_param":{"num_deleted":"0","num_feature":"14","num_nodes":"49","size_leaf_vector":"1"}},{"base_weights":[-7.688153E-2,-2.1967094E0,1.0391852E0,-4.132378E0,-1.3496096E0,4.1845534E-2,1.9193423E0,-3.1646222E-1,-3.2974818E0,-2.2555783E0,-2.8473684E-1,-6.639882E-1,1.09955E0,1.1848458E0,2.7007754E0,-1.9030415E-1,-9.569465E-2,-1.4270934E-1,-8.887136E-2,-7.463957E-1,1.9190818E-1,-1.2475624E0,-4.2342567E-1,8.8061804E-1,8.341419E-2,7.537567E-1,2.2962878E0,1.1629762E-1,1.7893927E-1,-4.675778E-2,-1.8497825E-2,-3.5695215E-3,1.594611E-2,-7.4662305E-2,-3.9225627E-2,-4.8668306E-2,-1.1652503E-2,-5.5342675E-3,4.586755E-2,1.7162915E-2,5.260026E-2,9.246788E-2,1.5873694E-1],"categories":[],"categories_nodes":[],"categories_segments":[],"categories_sizes":[],"default_left":[0,0,0,0,0,0,0,0,0,0,0,0,0,0,0,0,0,0,0,0,0,0,0,0,0,0,0,0,0,0,0,0,0,0,0,0,0,0,0,0,0,0,0],"id":21,"left_children":[1,3,5,7,9,11,13,-1,15,17,19,21,23,25,27,-1,-1,-1,-1,29,31,33,35,37,-1,39,41,-1,-1,-1,-1,-1,-1,-1,-1,-1,-1,-1,-1,-1,-1,-1,-1],"loss_changes":[7.5462915E2,1.747904E2,1.8338313E2,3.9656555E1,7.460756E1,7.463987E1,6.050952E1,0E0,1.1011627E1,6.9483643E0,8.284993E0,7.8949146E0,3.5114403E0,2.6537857E1,9.118134E0,0E0,0E0,0E0,0E0,1.0041084E0,6.5817755E-1,7.625141E-1,4.379748E0,1.2303562E0,0E0,5.025833E0,4.1046906E-1,0E0,0E0,0E0,0E0,0E0,0E0,0E0,0E0,0E0,0E0,0E0,0E0,0E0,0E0,0E0,0E0],"parents":[2147483647,0,0,1,1,2,2,3,3,4,4,5,5,6,6,8,8,9,9,10,10,11,11,12,12,13,13,14,14,19,19,20,20,21,21,22,22,23,23,25,25,26,26],"right_children":[2,4,6,8,10,12,14,-1,16,18,20,22,24,26,28,-1,-1,-1,-1,30,32,34,36,38,-1,40,42,-1,-1,-1,-1,-1,-1,-1,-1,-1,-1,-1,-1,-1,-1,-1,-1],"split_conditions":[-3.1459558E-1,-1.4534187E0,5.0680006E-1,-2.1753871E0,1.1799765E0,1.1799765E0,1.1799765E0,-3.1646222E-1,1.1799765E0,-9.358733E-1,-7.758102E-1,-1.4963509E-2,2.5822517E-1,1.2613119E0,1.0597715E0,-1.9030415E-1,-9.569465E-2,-1.4270934E-1,-8.887136E-2,-8.845746E-1,4.6473664E-1,-3.0513975E-1,-1.2329198E0,-1.5528291E0,8.341419E-2,7.777987E-1,1.933291E0,1.1629762E-1,1.7893927E-1,-4.675778E-2,-1.8497825E-2,-3.5695215E-3,1.594611E-2,-7.4662305E-2,-3.9225627E-2,-4.8668306E-2,-1.1652503E-2,-5.5342675E-3,4.586755E-2,1.7162915E-2,5.260026E-2,9.246788E-2,1.5873694E-1],"split_indices":[13,13,13,13,6,6,6,0,6,1,13,13,13,13,13,0,0,0,0,13,1,1,1,7,0,13,13,0,0,0,0,0,0,0,0,0,0,0,0,0,0,0,0],"split_type":[0,0,0,0,0,0,0,0,0,0,0,0,0,0,0,0,0,0,0,0,0,0,0,0,0,0,0,0,0,0,0,0,0,0,0,0,0,0,0,0,0,0,0],"sum_hessian":[3.17E2,1.09E2,2.08E2,3.2E1,7.7E1,9.8E1,1.1E2,7E0,2.5E1,4.1E1,3.6E1,5.9E1,3.9E1,5.8E1,5.2E1,1.7E1,8E0,1.6E1,2.5E1,1.8E1,1.8E1,1.6E1,4.3E1,3E1,9E0,4.3E1,1.5E1,3.9E1,1.3E1,1.1E1,7E0,6E0,1.2E1,9E0,7E0,1E1,3.3E1,1E0,2.9E1,1.9E1,2.4E1,1.2E1,3E0],"tree_param":{"num_deleted":"0","num_feature":"14","num_nodes":"43","size_leaf_vector":"1"}},{"base_weights":[4.8857983E-2,-1.8673645E0,1.0997525E0,-4.989453E0,-1.4115986E0,3.622486E-1,2.0096788E0,-3.254444E-1,-1.7110564E-1,-2.2572126E0,-3.2790995E-1,-4.232771E-1,1.2268817E0,1.0185192E0,2.6004167E0,-1.5149489E-1,-1.6681253E0,-8.31949E-1,2.8775135E-1,-6.429282E-1,2.9318136E-1,7.7986336E-1,1.5734016E0,5.9836674E-1,1.4529033E0,2.0033727E0,3.4591973E0,-7.1255855E-2,-1.0233384E-1,-5.3317238E-2,-1.8686047E-2,-3.1067987E-4,2.0287579E-2,-6.1331224E-2,-2.1525182E-2,1.5889487E-3,2.9369354E-2,9.9035585E-3,4.544767E-2,5.098302E-2,9.201611E-2,3.743341E-2,1.061415E-2,7.5524285E-2,1.32896425E-2,4.5725346E-2,1.1173338E-1,1.0153432E-1,1.9952284E-1],"categories":[],"categories_nodes":[],"categories_segments":[],"categories_sizes":[],"default_left":[0,0,0,0,0,0,0,0,0,0,0,0,0,0,0,0,0,0,0,0,0,0,0,0,0,0,0,0,0,0,0,0,0,0,0,0,0,0,0,0,0,0,0,0,0,0,0,0,0],"id":22,"left_children":[1,3,5,7,9,11,13,-1,-1,15,17,19,21,23,25,-1,27,29,31,33,35,37,39,41,43,45,47,-1,-1,-1,-1,-1,-1,-1,-1,-1,-1,-1,-1,-1,-1,-1,-1,-1,-1,-1,-1,-1,-1],"loss_changes":[6.424255E2,1.537493E2,1.3751328E2,1.1066467E1,9.089807E1,7.862634E1,5.1218872E1,0E0,0E0,2.043576E1,1.4203674E1,9.788117E0,7.2925034E0,5.700901E0,2.2295532E1,0E0,2.1094513E-1,2.2866535E0,7.309675E-1,5.299532E0,1.1349248E0,1.7726545E0,2.55764E0,1.0016489E0,7.605896E-1,7.022934E0,8.592651E0,0E0,0E0,0E0,0E0,0E0,0E0,0E0,0E0,0E0,0E0,0E0,0E0,0E0,0E0,0E0,0E0,0E0,0E0,0E0,0E0,0E0,0E0],"parents":[2147483647,0,0,1,1,2,2,3,3,4,4,5,5,6,6,9,9,10,10,11,11,12,12,13,13,14,14,16,16,17,17,18,18,19,19,20,20,21,21,22,22,23,23,24,24,25,25,26,26],"right_children":[2,4,6,8,10,12,14,-1,-1,16,18,20,22,24,26,-1,28,30,32,34,36,38,40,42,44,46,48,-1,-1,-1,-1,-1,-1,-1,-1,-1,-1,-1,-1,-1,-1,-1,-1,-1,-1,-1,-1,-1,-1],"split_conditions":[-3.77933E-1,-1.5845064E0,5.902991E-1,-2.1301286E0,1.1799765E0,1.1799765E0,-3.7857702E-1,-3.254444E-1,-1.7110564E-1,-9.2968297E-1,-7.6383555E-1,9.073303E-2,2.1481754E-2,1.1685885E0,1.279756E0,-1.5149489E-1,1.0556291E-1,-9.5043206E-1,4.6473664E-1,-1.4321383E0,2.9375622E-1,-9.836552E-4,1.3068272E-1,1.1206922E-1,1.698789E-1,1.5189904E-1,-1.1491241E-1,-7.1255855E-2,-1.0233384E-1,-5.3317238E-2,-1.8686047E-2,-3.1067987E-4,2.0287579E-2,-6.1331224E-2,-2.1525182E-2,1.5889487E-3,2.9369354E-2,9.9035585E-3,4.544767E-2,5.098302E-2,9.201611E-2,3.743341E-2,1.061415E-2,7.5524285E-2,1.32896425E-2,4.5725346E-2,1.1173338E-1,1.0153432E-1,1.9952284E-1],"split_indices":[5,5,5,5,6,6,8,0,0,5,5,1,5,5,5,0,10,5,1,1,5,1,1,10,10,2,1,0,0,0,0,0,0,0,0,0,0,0,0,0,0,0,0,0,0,0,0,0,0],"split_type":[0,0,0,0,0,0,0,0,0,0,0,0,0,0,0,0,0,0,0,0,0,0,0,0,0,0,0,0,0,0,0,0,0,0,0,0,0,0,0,0,0,0,0,0,0,0,0,0,0],"sum_hessian":[3.17E2,1.12E2,2.05E2,1.3E1,9.9E1,1.14E2,9.1E1,5E0,8E0,5.5E1,4.4E1,6E1,5.4E1,3.5E1,5.6E1,2.2E1,3.3E1,2.4E1,2E1,4.6E1,1.4E1,2.5E1,2.9E1,1.9E1,1.6E1,3.5E1,2.1E1,2.3E1,1E1,1.5E1,9E0,6E0,1.4E1,1.1E1,3.5E1,8E0,6E0,5E0,2E1,1.1E1,1.8E1,1.3E1,6E0,1.5E1,1E0,7E0,2.8E1,7E0,1.4E1],"tree_param":{"num_deleted":"0","num_feature":"14","num_nodes":"49","size_leaf_vector":"1"}},{"base_weights":[4.4670567E-2,-1.8661256E0,1.0529395E0,-4.7589006E0,-1.4791433E0,3.328961E-1,1.9665433E0,-3.0632457E-1,-1.7351808E-1,-2.144154E0,-4.780764E-1,-1.8034716E-1,1.3147963E0,1.3044599E0,2.8442965E0,-1.4646733E-1,-1.5556685E0,-1.1855433E0,1.019214E-1,-5.886061E-1,2.323105E-1,1.0645776E0,1.3193397E-1,9.4038E-1,8.7535866E-2,1.2080815E-1,1.94354E-1,-6.5286376E-2,-9.837842E-2,-7.04396E-2,-3.0078752E-2,-7.0095337E-3,2.0039922E-2,-5.1612493E-2,-1.9576423E-2,2.29664E-2,-7.555616E-3,3.0988231E-2,6.144653E-2,-5.643463E-3,4.884106E-2],"categories":[],"categories_nodes":[],"categories_segments":[],"categories_sizes":[],"default_left":[0,0,0,0,0,0,0,0,0,0,0,0,0,0,0,0,0,0,0,0,0,0,0,0,0,0,0,0,0,0,0,0,0,0,0,0,0,0,0,0,0],"id":23,"left_children":[1,3,5,7,9,11,13,-1,-1,15,17,19,21,23,25,-1,27,29,31,33,35,37,-1,39,-1,-1,-1,-1,-1,-1,-1,-1,-1,-1,-1,-1,-1,-1,-1,-1,-1],"loss_changes":[6.358152E2,1.2057852E2,1.4143756E2,1.6473999E0,6.687843E1,6.1719467E1,5.1498596E1,0E0,0E0,2.3629456E1,1.735466E1,1.3782906E1,1.1103859E1,7.4521713E0,8.466187E0,0E0,1.2400665E0,1.6295376E0,1.7928699E0,3.1805677E0,3.6382008E0,1.9432831E0,0E0,1.3768482E0,0E0,0E0,0E0,0E0,0E0,0E0,0E0,0E0,0E0,0E0,0E0,0E0,0E0,0E0,0E0,0E0,0E0],"parents":[2147483647,0,0,1,1,2,2,3,3,4,4,5,5,6,6,9,9,10,10,11,11,12,12,13,13,14,14,16,16,17,17,18,18,19,19,20,20,21,21,23,23],"right_children":[2,4,6,8,10,12,14,-1,-1,16,18,20,22,24,26,-1,28,30,32,34,36,38,-1,40,-1,-1,-1,-1,-1,-1,-1,-1,-1,-1,-1,-1,-1,-1,-1,-1,-1],"split_conditions":[-3.402423E-1,-1.7346721E0,1.1799765E0,-2.1301286E0,1.1799765E0,7.8157645E-1,6.71838E-1,-3.0632457E-1,-1.7351808E-1,-8.734874E-1,-9.5043206E-1,3.1200343E-1,2.126968E0,2.0154299E-1,1.5390693E0,-1.4646733E-1,1.0949787E-1,-1.2447383E0,-5.936387E-1,-5.6913316E-1,8.518857E-2,-6.04066E-1,1.3193397E-1,-1.5528291E0,8.7535866E-2,1.2080815E-1,1.94354E-1,-6.5286376E-2,-9.837842E-2,-7.04396E-2,-3.0078752E-2,-7.0095337E-3,2.0039922E-2,-5.1612493E-2,-1.9576423E-2,2.29664E-2,-7.555616E-3,3.0988231E-2,6.144653E-2,-5.643463E-3,4.884106E-2],"split_indices":[5,5,6,5,6,5,5,0,0,5,5,5,5,5,5,0,10,5,5,7,10,7,0,7,0,0,0,0,0,0,0,0,0,0,0,0,0,0,0,0,0],"split_type":[0,0,0,0,0,0,0,0,0,0,0,0,0,0,0,0,0,0,0,0,0,0,0,0,0,0,0,0,0,0,0,0,0,0,0,0,0,0,0,0,0],"sum_hessian":[3.28E2,1.13E2,2.15E2,1.2E1,1.01E2,1.21E2,9.4E1,4E0,8E0,6E1,4.1E1,8E1,4.1E1,5.5E1,3.9E1,2.4E1,3.6E1,1.8E1,2.3E1,4E1,4E1,3.6E1,5E0,3.2E1,2.3E1,3E1,9E0,2.5E1,1.1E1,1.2E1,6E0,1.3E1,1E1,1.1E1,2.9E1,2.5E1,1.5E1,1.1E1,2.5E1,1E0,3.1E1],"tree_param":{"num_deleted":"0","num_feature":"14","num_nodes":"41","size_leaf_vector":"1"}},{"base_weights":[-7.9859085E-2,-1.8538656E0,9.342392E-1,-3.3635757E0,-1.1403373E0,1.3971893E-1,1.7582581E0,-2.7202356E-1,-2.804143E0,-1.8246425E0,-1.4972904E-1,-5.0686353E-1,9.5850664E-1,1.1164008E0,2.5293334E0,-1.6460085E-1,-1.5734731E0,-1.157824E-1,-1.4914318E0,-5.6320035E-1,2.2809942E-1,-1.1836299E0,-3.509558E-1,7.831833E-1,1.345634E-1,5.409373E-1,1.4050412E0,1.0944767E-1,1.6556655E-1,-8.198546E-2,-2.2777844E-2,-8.711364E-2,-5.6584943E-2,-3.6271818E-2,-1.6919328E-2,-7.635934E-4,1.707997E-2,-7.23054E-2,-2.8971711E-2,-4.5610774E-2,-9.590703E-3,2.27895E-2,5.848177E-2,4.1562654E-3,3.2188404E-2,4.279026E-2,8.630149E-2],"categories":[],"categories_nodes":[],"categories_segments":[],"categories_sizes":[],"default_left":[0,0,0,0,0,0,0,0,0,0,0,0,0,0,0,0,0,0,0,0,0,0,0,0,0,0,0,0,0,0,0,0,0,0,0,0,0,0,0,0,0,0,0,0,0,0,0],"id":24,"left_children":[1,3,5,7,9,11,13,-1,15,17,19,21,23,25,27,-1,29,-1,31,33,35,37,39,41,-1,43,45,-1,-1,-1,-1,-1,-1,-1,-1,-1,-1,-1,-1,-1,-1,-1,-1,-1,-1,-1,-1],"loss_changes":[5.936085E2,1.2543088E2,1.3724126E2,2.889569E1,5.5990692E1,5.7662514E1,4.8153076E1,0E0,1.4033295E1,4.5631714E0,5.5962086E0,6.020896E0,1.2474339E1,8.8738785E0,4.995758E0,0E0,6.752777E-2,0E0,9.1581726E-1,3.745613E-1,5.3004676E-1,9.065466E-1,4.3803377E0,5.160372E0,0E0,9.3510723E-1,5.222191E0,0E0,0E0,0E0,0E0,0E0,0E0,0E0,0E0,0E0,0E0,0E0,0E0,0E0,0E0,0E0,0E0,0E0,0E0,0E0,0E0],"parents":[2147483647,0,0,1,1,2,2,3,3,4,4,5,5,6,6,8,8,9,9,10,10,11,11,12,12,13,13,14,14,16,16,18,18,19,19,20,20,21,21,22,22,23,23,25,25,26,26],"right_children":[2,4,6,8,10,12,14,-1,16,18,20,22,24,26,28,-1,30,-1,32,34,36,38,40,42,-1,44,46,-1,-1,-1,-1,-1,-1,-1,-1,-1,-1,-1,-1,-1,-1,-1,-1,-1,-1,-1,-1],"split_conditions":[-2.826081E-1,-1.333651E0,4.5738905E-3,-2.1753871E0,1.1799765E0,5.6917804E-1,6.875147E-1,-2.7202356E-1,1.1799765E0,-9.358733E-1,-7.020036E-1,-1.4384296E0,1.6719922E0,1.0228492E-1,1.1827255E0,-1.6460085E-1,1.8045237E0,-1.157824E-1,-5.59809E-1,-8.845746E-1,4.6473664E-1,4.4392127E-1,-4.895996E-2,9.168501E-1,1.345634E-1,-1.0677705E0,1.1726552E-1,1.0944767E-1,1.6556655E-1,-8.198546E-2,-2.2777844E-2,-8.711364E-2,-5.6584943E-2,-3.6271818E-2,-1.6919328E-2,-7.635934E-4,1.707997E-2,-7.23054E-2,-2.8971711E-2,-4.5610774E-2,-9.590703E-3,2.27895E-2,5.848177E-2,4.1562654E-3,3.2188404E-2,4.279026E-2,8.630149E-2],"split_indices":[13,13,8,13,6,13,13,0,6,1,13,1,13,1,1,0,2,0,13,13,1,13,13,13,0,1,13,0,0,0,0,0,0,0,0,0,0,0,0,0,0,0,0,0,0,0,0],"split_type":[0,0,0,0,0,0,0,0,0,0,0,0,0,0,0,0,0,0,0,0,0,0,0,0,0,0,0,0,0,0,0,0,0,0,0,0,0,0,0,0,0,0,0,0,0,0,0],"sum_hessian":[3.28E2,1.19E2,2.09E2,3.7E1,8.2E1,1.07E2,1.02E2,6E0,3.1E1,4.8E1,3.4E1,6E1,4.7E1,5.7E1,4.5E1,2.1E1,1E1,1.7E1,3.1E1,1.6E1,1.8E1,1E1,5E1,4.4E1,3E0,2E1,3.7E1,3.4E1,1.1E1,9E0,1E0,1.6E1,1.5E1,8E0,8E0,6E0,1.2E1,6E0,4E0,1E1,4E1,2.5E1,1.9E1,4E0,1.6E1,1.5E1,2.2E1],"tree_param":{"num_deleted":"0","num_feature":"14","num_nodes":"47","size_leaf_vector":"1"}},{"base_weights":[-4.052355E-2,-1.9714259E0,8.357913E-1,-4.5222955E0,-1.5193533E0,4.9948823E-2,1.5741906E0,-2.8778648E-1,-1.6650026E-1,-2.084448E0,-5.4392207E-1,-5.5035186E-1,8.4930915E-1,9.1397303E-1,2.3018181E0,-1.3097984E-1,-1.5333325E0,-1.0762184E0,-6.7045115E-2,-1.0396513E0,-2.505095E-1,4.827312E-1,1.1672516E0,4.0686437E-1,1.5750488E0,2.0509331E0,2.0044458E-1,-8.309255E-2,-4.8608758E-2,-5.6444436E-2,-7.1540833E-3,-1.4817323E-2,6.3330047E-3,-7.5733185E-2,-3.7748E-2,-2.1330511E-2,8.080028E-3,1.185454E-2,3.757399E-2,1.9274777E-2,6.0923487E-2,-2.658596E-2,2.3784487E-2,6.578862E-2,1.3684726E-1,1.0434743E-1,3.9551925E-2],"categories":[],"categories_nodes":[],"categories_segments":[],"categories_sizes":[],"default_left":[0,0,0,0,0,0,0,0,0,0,0,0,0,0,0,0,0,0,0,0,0,0,0,0,0,0,0,0,0,0,0,0,0,0,0,0,0,0,0,0,0,0,0,0,0,0,0],"id":25,"left_children":[1,3,5,7,9,11,13,-1,-1,15,17,19,21,23,25,-1,27,29,31,33,35,37,39,41,43,45,-1,-1,-1,-1,-1,-1,-1,-1,-1,-1,-1,-1,-1,-1,-1,-1,-1,-1,-1,-1,-1],"loss_changes":[5.583415E2,1.1190637E2,1.3164166E2,2.8926086E0,4.792401E1,5.373149E1,5.410211E1,0E0,0E0,1.2499298E1,8.558398E0,9.129168E0,5.030964E0,2.0479115E1,1.5333405E1,0E0,5.47966E-1,6.2485504E-1,8.814556E-1,2.1020565E0,3.0444283E0,1.4062033E0,5.3128815E-1,2.6430712E0,4.5326157E0,6.179199E-1,0E0,0E0,0E0,0E0,0E0,0E0,0E0,0E0,0E0,0E0,0E0,0E0,0E0,0E0,0E0,0E0,0E0,0E0,0E0,0E0,0E0],"parents":[2147483647,0,0,1,1,2,2,3,3,4,4,5,5,6,6,9,9,10,10,11,11,12,12,13,13,14,14,16,16,17,17,18,18,19,19,20,20,21,21,22,22,23,23,24,24,25,25],"right_children":[2,4,6,8,10,12,14,-1,-1,16,18,20,22,24,26,-1,28,30,32,34,36,38,40,42,44,46,-1,-1,-1,-1,-1,-1,-1,-1,-1,-1,-1,-1,-1,-1,-1,-1,-1,-1,-1,-1,-1],"split_conditions":[-5.244158E-1,-1.6785274E0,4.5810464E-1,-2.1301286E0,1.1799765E0,1.1799765E0,1.1799765E0,-2.8778648E-1,-1.6650026E-1,-9.2968297E-1,-1.0063324E0,-1.5562835E-2,-1.2644398E-1,1.1685885E0,1.6354284E0,-1.3097984E-1,8.1430084E-1,1.5490943E0,-7.6383555E-1,-4.013013E-1,2.5841367E-1,1.04075514E-1,-9.2934084E-1,-5.731795E-1,2.3779705E0,7.191364E-2,2.0044458E-1,-8.309255E-2,-4.8608758E-2,-5.6444436E-2,-7.1540833E-3,-1.4817323E-2,6.3330047E-3,-7.5733185E-2,-3.7748E-2,-2.1330511E-2,8.080028E-3,1.185454E-2,3.757399E-2,1.9274777E-2,6.0923487E-2,-2.658596E-2,2.3784487E-2,6.578862E-2,1.3684726E-1,1.0434743E-1,3.9551925E-2],"split_indices":[5,5,5,5,6,6,6,0,0,5,5,5,5,5,5,0,7,7,5,7,7,7,7,10,5,10,0,0,0,0,0,0,0,0,0,0,0,0,0,0,0,0,0,0,0,0,0],"split_type":[0,0,0,0,0,0,0,0,0,0,0,0,0,0,0,0,0,0,0,0,0,0,0,0,0,0,0,0,0,0,0,0,0,0,0,0,0,0,0,0,0,0,0,0,0,0,0],"sum_hessian":[3.28E2,1.02E2,2.26E2,1.4E1,8.8E1,1.1E2,1.16E2,5E0,9E0,5.5E1,3.3E1,6.3E1,4.7E1,6.2E1,5.4E1,2.6E1,2.9E1,1.5E1,1.8E1,2.3E1,4E1,2.3E1,2.4E1,3.6E1,2.6E1,4.9E1,5E0,2.2E1,7E0,1.4E1,1E0,8E0,1E1,7E0,1.6E1,2.8E1,1.2E1,1.3E1,1E1,2E0,2.2E1,2E0,3.4E1,2.3E1,3E0,4.7E1,2E0],"tree_param":{"num_deleted":"0","num_feature":"14","num_nodes":"47","size_leaf_vector":"1"}},{"base_weights":[-6.627092E-2,-6.811202E-1,1.1123308E0,-9.898818E-1,-1.5851513E-2,6.9105816E-1,1.8590873E0,-7.839084E-1,-3.3341234E0,2.7794564E-1,-1.3611008E0,9.865177E-2,1.1873306E0,2.1070652E0,8.259294E-1,-1.0394373E0,-1.6102219E-1,-1.1666476E-1,-2.6126167E-1,9.54687E-1,6.688557E-2,-1.6278555E0,-4.206276E-1,5.157364E-1,-9.1221654E-1,7.748393E-2,7.4342066E-1,1.0688994E0,2.4359937E0,6.631012E-2,1.4203628E0,-4.0422812E-2,-8.6881444E-2,-3.3601943E-2,1.5449697E-2,1.1947346E-2,6.860781E-2,-1.7736798E-2,2.0772498E-2,-4.5467265E-2,-1.0103973E-1,8.393288E-4,-2.8601393E-2,-1.7743237E-2,3.8175955E-2,-1.2943204E-2,-5.2159835E-2,4.115577E-2,2.2005083E-3,6.940505E-2,1.6143609E-2,1.5007968E-1,9.491971E-2,-1.1523724E-2,9.906244E-3,3.1279884E-2,8.708369E-2],"categories":[],"categories_nodes":[],"categories_segments":[],"categories_sizes":[],"default_left":[0,0,0,0,0,0,0,0,0,0,0,0,0,0,0,0,0,0,0,0,0,0,0,0,0,0,0,0,0,0,0,0,0,0,0,0,0,0,0,0,0,0,0,0,0,0,0,0,0,0,0,0,0,0,0,0,0],"id":26,"left_children":[1,3,5,7,9,11,13,15,17,19,21,23,25,27,29,31,33,-1,-1,35,37,39,41,43,45,-1,47,49,51,53,55,-1,-1,-1,-1,-1,-1,-1,-1,-1,-1,-1,-1,-1,-1,-1,-1,-1,-1,-1,-1,-1,-1,-1,-1,-1,-1],"loss_changes":[2.2612766E2,4.209323E1,3.237619E1,6.498555E1,2.646352E1,2.0462513E1,7.995331E0,2.0524132E1,8.6274185E0,7.791965E0,2.3257866E0,1.4383846E1,4.9602356E0,7.6406403E0,3.9697027E0,1.3431946E1,9.574913E0,0E0,0E0,3.5565195E0,6.4667516E0,7.033787E-1,2.7450085E-1,5.448223E0,5.8571625E-1,0E0,1.0228214E0,1.6950178E0,9.912567E-1,2.4126567E-1,1.8724728E-1,0E0,0E0,0E0,0E0,0E0,0E0,0E0,0E0,0E0,0E0,0E0,0E0,0E0,0E0,0E0,0E0,0E0,0E0,0E0,0E0,0E0,0E0,0E0,0E0,0E0,0E0],"parents":[2147483647,0,0,1,1,2,2,3,3,4,4,5,5,6,6,7,7,8,8,9,9,10,10,11,11,12,12,13,13,14,14,15,15,16,16,19,19,20,20,21,21,22,22,23,23,24,24,26,26,27,27,28,28,29,29,30,30],"right_children":[2,4,6,8,10,12,14,16,18,20,22,24,26,28,30,32,34,-1,-1,36,38,40,42,44,46,-1,48,50,52,54,56,-1,-1,-1,-1,-1,-1,-1,-1,-1,-1,-1,-1,-1,-1,-1,-1,-1,-1,-1,-1,-1,-1,-1,-1,-1,-1],"split_conditions":[4.2873815E-1,-4.5683658E-1,1.0447726E0,-4.2936486E-1,5.29508E-1,1.0754284E0,1.3837271E0,-3.356145E-2,-2.6864803E-1,-4.0064394E-1,3.854869E-1,1.2710054E0,1.2286098E0,6.5279025E-1,1.2935293E0,1.0951371E0,-2.6191434E-1,-1.1666476E-1,-2.6126167E-1,1.1565725E0,-3.833587E-2,7.800725E-1,-1.0183436E0,5.743585E-1,2.237466E-1,7.748393E-2,1.8078215E0,6.3603055E-1,7.880137E-1,-1.6899049E0,1.5419482E0,-4.0422812E-2,-8.6881444E-2,-3.3601943E-2,1.5449697E-2,1.1947346E-2,6.860781E-2,-1.7736798E-2,2.0772498E-2,-4.5467265E-2,-1.0103973E-1,8.393288E-4,-2.8601393E-2,-1.7743237E-2,3.8175955E-2,-1.2943204E-2,-5.2159835E-2,4.115577E-2,2.2005083E-3,6.940505E-2,1.6143609E-2,1.5007968E-1,9.491971E-2,-1.1523724E-2,9.906244E-3,3.1279884E-2,8.708369E-2],"split_indices":[8,8,1,12,12,8,12,1,2,12,8,12,12,8,8,0,3,0,0,9,8,2,0,8,1,0,12,12,12,0,2,0,0,0,0,0,0,0,0,0,0,0,0,0,0,0,0,0,0,0,0,0,0,0,0,0,0],"split_type":[0,0,0,0,0,0,0,0,0,0,0,0,0,0,0,0,0,0,0,0,0,0,0,0,0,0,0,0,0,0,0,0,0,0,0,0,0,0,0,0,0,0,0,0,0,0,0,0,0,0,0,0,0,0,0,0,0],"sum_hessian":[3.1E2,2.04E2,1.06E2,1.39E2,6.5E1,6.9E1,3.7E1,1.29E2,1E1,5.4E1,1.1E1,3.2E1,3.7E1,2.9E1,8E0,9.1E1,3.8E1,8E0,2E0,1.2E1,4.2E1,8E0,3E0,2.3E1,9E0,1.9E1,1.8E1,8E0,2.1E1,4E0,4E0,7E1,2.1E1,1.8E1,2E1,5E0,7E0,1.9E1,2.3E1,4E0,4E0,1E0,2E0,5E0,1.8E1,2E0,7E0,1.6E1,2E0,5E0,3E0,8E0,1.3E1,1E0,3E0,2E0,2E0],"tree_param":{"num_deleted":"0","num_feature":"14","num_nodes":"57","size_leaf_vector":"1"}},{"base_weights":[-1.9980775E-2,-1.6382319E0,8.9376855E-1,-4.268699E0,-1.2719007E0,3.9076704E-1,1.7872543E0,-2.6965612E-1,-1.522392E-1,-1.8401731E0,-3.756784E-1,-1.9108811E-1,1.0587776E0,1.1701791E0,2.3572967E0,-1.2983012E-1,-1.410368E0,-7.979658E-1,2.3170301E-1,-5.6110877E-1,1.2820664E-1,6.7716664E-1,1.4828328E0,6.584533E-1,1.4099385E0,2.1108181E0,1.7809455E-1,-9.3839854E-2,-5.9569158E-2,-5.5063277E-2,-2.4049854E-2,-1.1378698E-3,1.8041484E-2,-6.0423244E-2,-2.1725623E-2,-1.48747135E-2,1.4996891E-2,2.1446565E-2,4.318158E-2,3.3181097E-2,7.7591665E-2,3.2710393E-3,3.7592016E-2,8.036334E-2,4.402737E-2,5.11961E-2,1.09148584E-1],"categories":[],"categories_nodes":[],"categories_segments":[],"categories_sizes":[],"default_left":[0,0,0,0,0,0,0,0,0,0,0,0,0,0,0,0,0,0,0,0,0,0,0,0,0,0,0,0,0,0,0,0,0,0,0,0,0,0,0,0,0,0,0,0,0,0,0],"id":27,"left_children":[1,3,5,7,9,11,13,-1,-1,15,17,19,21,23,25,-1,27,29,31,33,35,37,39,41,43,45,-1,-1,-1,-1,-1,-1,-1,-1,-1,-1,-1,-1,-1,-1,-1,-1,-1,-1,-1,-1,-1],"loss_changes":[4.835125E2,1.0827811E2,9.323135E1,2.845871E0,5.2785034E1,5.2674843E1,2.3623474E1,0E0,0E0,1.714534E1,1.0957451E1,8.696569E0,9.190796E0,3.7338867E0,3.7639465E0,0E0,2.1560822E0,1.8737087E0,5.996487E-1,2.2613058E0,3.0134742E0,1.2496147E0,6.0941696E-1,7.261553E-1,1.1963196E0,4.3121338E-1,0E0,0E0,0E0,0E0,0E0,0E0,0E0,0E0,0E0,0E0,0E0,0E0,0E0,0E0,0E0,0E0,0E0,0E0,0E0,0E0,0E0],"parents":[2147483647,0,0,1,1,2,2,3,3,4,4,5,5,6,6,9,9,10,10,11,11,12,12,13,13,14,14,16,16,17,17,18,18,19,19,20,20,21,21,22,22,23,23,24,24,25,25],"right_children":[2,4,6,8,10,12,14,-1,-1,16,18,20,22,24,26,-1,28,30,32,34,36,38,40,42,44,46,-1,-1,-1,-1,-1,-1,-1,-1,-1,-1,-1,-1,-1,-1,-1,-1,-1,-1,-1,-1,-1],"split_conditions":[-3.402423E-1,-1.6785274E0,7.8157645E-1,-2.1301286E0,1.1799765E0,1.1799765E0,1.1799765E0,-2.6965612E-1,-1.522392E-1,-1.0063324E0,-7.873793E-1,2.6774183E-1,2.0154299E-1,1.1685885E0,1.6354284E0,-1.2983012E-1,-1.0243907E0,-1.2447383E0,4.6473664E-1,-1.4321383E0,-8.1760657E-1,4.37985E-1,-8.772402E-2,-1.1780803E0,1.0495021E0,-7.149395E-1,1.7809455E-1,-9.3839854E-2,-5.9569158E-2,-5.5063277E-2,-2.4049854E-2,-1.1378698E-3,1.8041484E-2,-6.0423244E-2,-2.1725623E-2,-1.48747135E-2,1.4996891E-2,2.1446565E-2,4.318158E-2,3.3181097E-2,7.7591665E-2,3.2710393E-3,3.7592016E-2,8.036334E-2,4.402737E-2,5.11961E-2,1.09148584E-1],"split_indices":[5,5,5,5,6,6,6,0,0,5,5,5,5,5,5,0,1,5,1,1,1,1,1,2,0,1,0,0,0,0,0,0,0,0,0,0,0,0,0,0,0,0,0,0,0,0,0],"split_type":[0,0,0,0,0,0,0,0,0,0,0,0,0,0,0,0,0,0,0,0,0,0,0,0,0,0,0,0,0,0,0,0,0,0,0,0,0,0,0,0,0,0,0,0,0,0,0],"sum_hessian":[3.25E2,1.17E2,2.08E2,1.3E1,1.04E2,1.34E2,7.4E1,5E0,8E0,6.3E1,4.1E1,7.2E1,6.2E1,3.7E1,3.7E1,2.1E1,4.2E1,2.4E1,1.7E1,3.3E1,3.9E1,3.4E1,2.8E1,1.3E1,2.4E1,3.3E1,4E0,1.1E1,3.1E1,1.1E1,1.3E1,6E0,1.1E1,4E0,2.9E1,1.1E1,2.8E1,1.6E1,1.8E1,3E0,2.5E1,2E0,1.1E1,1.6E1,8E0,3E0,3E1],"tree_param":{"num_deleted":"0","num_feature":"14","num_nodes":"47","size_leaf_vector":"1"}},{"base_weights":[-4.18031E-2,-1.5704165E0,7.52101E-1,-4.1582913E0,-1.1725148E0,1.2962902E-1,1.4230744E0,-1.3175109E-1,-2.485683E-1,-1.7423679E0,-4.1192937E-1,-4.0346947E-1,7.906367E-1,8.26851E-1,2.051757E0,-1.1607768E-1,-1.3034452E0,-8.8686097E-1,6.0138527E-2,-7.354281E-1,-9.952187E-2,4.8337892E-1,1.066269E0,4.778926E-1,1.2612363E0,1.7634159E0,2.8613212E0,-7.0451334E-2,-3.986874E-2,-5.798164E-2,-3.1489946E-2,-9.850993E-3,8.444333E-3,-4.9556687E-2,-1.7223623E-2,-2.5115166E-2,3.6225242E-3,1.249327E-2,3.577649E-2,3.2108307E-2,6.140362E-2,1.642733E-2,4.032277E-2,-5.903244E-4,6.5981925E-2,7.311386E-2,1.02469735E-1,7.209559E-2,1.6066805E-1],"categories":[],"categories_nodes":[],"categories_segments":[],"categories_sizes":[],"default_left":[0,0,0,0,0,0,0,0,0,0,0,0,0,0,0,0,0,0,0,0,0,0,0,0,0,0,0,0,0,0,0,0,0,0,0,0,0,0,0,0,0,0,0,0,0,0,0,0,0],"id":28,"left_children":[1,3,5,7,9,11,13,-1,-1,15,17,19,21,23,25,-1,27,29,31,33,35,37,39,41,43,45,47,-1,-1,-1,-1,-1,-1,-1,-1,-1,-1,-1,-1,-1,-1,-1,-1,-1,-1,-1,-1,-1,-1],"loss_changes":[3.8345642E2,1.0633411E2,8.668926E1,4.239792E0,4.0457336E1,3.8728657E1,3.5787033E1,0E0,0E0,1.0701752E1,9.469735E0,6.0815887E0,3.6344109E0,7.4311333E0,6.1589813E0,0E0,6.3972473E-1,7.421684E-1,6.4851487E-1,2.5576982E0,2.322212E0,1.1764727E0,9.269028E-1,1.2561984E0,1.7255936E0,2.757492E-1,8.631897E-1,0E0,0E0,0E0,0E0,0E0,0E0,0E0,0E0,0E0,0E0,0E0,0E0,0E0,0E0,0E0,0E0,0E0,0E0,0E0,0E0,0E0,0E0],"parents":[2147483647,0,0,1,1,2,2,3,3,4,4,5,5,6,6,9,9,10,10,11,11,12,12,13,13,14,14,16,16,17,17,18,18,19,19,20,20,21,21,22,22,23,23,24,24,25,25,26,26],"right_children":[2,4,6,8,10,12,14,-1,-1,16,18,20,22,24,26,-1,28,30,32,34,36,38,40,42,44,46,48,-1,-1,-1,-1,-1,-1,-1,-1,-1,-1,-1,-1,-1,-1,-1,-1,-1,-1,-1,-1,-1,-1],"split_conditions":[-4.2081252E-1,-1.6785274E0,5.4990476E-1,6.275179E-2,1.1799765E0,1.1799765E0,1.1799765E0,-1.3175109E-1,-2.485683E-1,-9.2968297E-1,-9.5043206E-1,-4.489982E-1,-5.5260286E-2,1.1685885E0,1.485092E0,-1.1607768E-1,3.0463794E-1,-1.4636607E0,-8.5402036E-1,2.1608315E-1,-1.0303559E-2,8.740388E-1,1.3068272E-1,1.8269394E-1,-2.0637345E0,9.8472416E-1,7.477457E-2,-7.0451334E-2,-3.986874E-2,-5.798164E-2,-3.1489946E-2,-9.850993E-3,8.444333E-3,-4.9556687E-2,-1.7223623E-2,-2.5115166E-2,3.6225242E-3,1.249327E-2,3.577649E-2,3.2108307E-2,6.140362E-2,1.642733E-2,4.032277E-2,-5.903244E-4,6.5981925E-2,7.311386E-2,1.02469735E-1,7.209559E-2,1.6066805E-1],"split_indices":[5,5,5,10,6,6,6,0,0,5,5,1,5,5,5,0,1,5,5,5,5,1,1,1,1,1,1,0,0,0,0,0,0,0,0,0,0,0,0,0,0,0,0,0,0,0,0,0,0],"split_type":[0,0,0,0,0,0,0,0,0,0,0,0,0,0,0,0,0,0,0,0,0,0,0,0,0,0,0,0,0,0,0,0,0,0,0,0,0,0,0,0,0,0,0,0,0,0,0,0,0],"sum_hessian":[3.14E2,1.07E2,2.07E2,1.3E1,9.4E1,1.08E2,9.9E1,6E0,7E0,5.3E1,4.1E1,6E1,4.8E1,5.2E1,4.7E1,2.1E1,3.2E1,2E1,2.1E1,2.8E1,3.2E1,2.4E1,2.4E1,3E1,2.2E1,3.7E1,1E1,2.5E1,7E0,8E0,1.2E1,6E0,1.5E1,1.6E1,1.2E1,9E0,2.3E1,1.3E1,1.1E1,8E0,1.6E1,2.2E1,8E0,1E0,2.1E1,2.1E1,1.6E1,3E0,7E0],"tree_param":{"num_deleted":"0","num_feature":"14","num_nodes":"49","size_leaf_vector":"1"}},{"base_weights":[-7.887935E-2,-1.9989089E0,5.3339654E-1,-4.0008817E0,-1.5867832E0,-5.8070313E-2,1.2562327E0,-2.4806336E-1,-1.3902412E-1,-2.1006064E0,-7.777281E-1,-5.7269937E-1,6.2906957E-1,7.137944E-1,1.8568461E0,-1.2075233E-1,-7.573148E-2,-5.9603084E-2,-5.1872474E-1,-1.017229E0,-2.0434901E-1,2.753414E-1,9.736197E-1,3.7058607E-1,1.1322572E0,6.853655E-2,2.2118816E0,-3.2591425E-2,-1.271143E-2,-6.920136E-2,-3.6045086E-2,-2.9712409E-2,-4.5481036E-4,7.999114E-3,2.697773E-2,3.6712054E-2,6.1508663E-2,-1.0954189E-2,2.16357E-2,3.6342621E-3,6.070578E-2,8.5261144E-2,1.2855409E-1],"categories":[],"categories_nodes":[],"categories_segments":[],"categories_sizes":[],"default_left":[0,0,0,0,0,0,0,0,0,0,0,0,0,0,0,0,0,0,0,0,0,0,0,0,0,0,0,0,0,0,0,0,0,0,0,0,0,0,0,0,0,0,0],"id":29,"left_children":[1,3,5,7,9,11,13,-1,-1,15,17,19,21,23,25,-1,-1,-1,27,29,31,33,35,37,39,-1,41,-1,-1,-1,-1,-1,-1,-1,-1,-1,-1,-1,-1,-1,-1,-1,-1],"loss_changes":[3.8901016E2,5.9656647E1,1.07383896E2,1.4419708E0,2.6634674E1,4.9513744E1,3.5489517E1,0E0,0E0,3.896515E0,2.3864326E0,1.2891546E1,7.044544E0,8.341217E0,6.11528E0,0E0,0E0,0E0,5.031891E-1,2.9151726E0,3.4203959E0,8.5854244E-1,9.391613E-1,1.3770242E0,2.2535934E0,0E0,8.934784E-1,0E0,0E0,0E0,0E0,0E0,0E0,0E0,0E0,0E0,0E0,0E0,0E0,0E0,0E0,0E0,0E0],"parents":[2147483647,0,0,1,1,2,2,3,3,4,4,5,5,6,6,9,9,10,10,11,11,12,12,13,13,14,14,18,18,19,19,20,20,21,21,22,22,23,23,24,24,26,26],"right_children":[2,4,6,8,10,12,14,-1,-1,16,18,20,22,24,26,-1,-1,-1,28,30,32,34,36,38,40,-1,42,-1,-1,-1,-1,-1,-1,-1,-1,-1,-1,-1,-1,-1,-1,-1,-1],"split_conditions":[-6.561547E-1,-1.6785274E0,4.5810464E-1,-2.1301286E0,1.1799765E0,1.1799765E0,1.1799765E0,-2.4806336E-1,-1.3902412E-1,-9.5643044E-1,-1.4636607E0,-1.5562835E-2,-1.2644398E-1,1.1382538E0,8.521955E-1,-1.2075233E-1,-7.573148E-2,-5.9603084E-2,8.8794076E-1,-6.8579644E-1,-9.5135146E-1,6.706054E-1,1.0053414E0,-1.8622268E0,-1.5365175E0,6.853655E-2,9.5455456E-1,-3.2591425E-2,-1.271143E-2,-6.920136E-2,-3.6045086E-2,-2.9712409E-2,-4.5481036E-4,7.999114E-3,2.697773E-2,3.6712054E-2,6.1508663E-2,-1.0954189E-2,2.16357E-2,3.6342621E-3,6.070578E-2,8.5261144E-2,1.2855409E-1],"split_indices":[5,5,5,5,6,6,6,0,0,5,5,5,5,5,1,0,0,0,1,1,1,7,1,1,1,0,5,0,0,0,0,0,0,0,0,0,0,0,0,0,0,0,0],"split_type":[0,0,0,0,0,0,0,0,0,0,0,0,0,0,0,0,0,0,0,0,0,0,0,0,0,0,0,0,0,0,0,0,0,0,0,0,0,0,0,0,0,0,0],"sum_hessian":[3.29E2,7.9E1,2.5E2,1.2E1,6.7E1,1.38E2,1.12E2,5E0,7E0,4E1,2.7E1,7.9E1,5.9E1,6E1,5.2E1,2.4E1,1.6E1,9E0,1.8E1,3.5E1,4.4E1,3E1,2.9E1,3.4E1,2.6E1,2.4E1,2.8E1,1.1E1,7E0,1.4E1,2.1E1,1.4E1,3E1,2.2E1,8E0,1.7E1,1.2E1,3E0,3.1E1,2E0,2.4E1,1.4E1,1.4E1],"tree_param":{"num_deleted":"0","num_feature":"14","num_nodes":"43","size_leaf_vector":"1"}},{"base_weights":[-3.120069E-2,-1.1891906E0,8.578035E-1,-3.6768014E0,-9.31282E-1,3.7107348E-1,1.4781597E0,-2.4129939E-1,-1.3149156E-1,-1.4689591E0,-2.3849382E-1,-5.7392642E-2,1.0687658E0,1.1141623E0,2.0293114E0,-1.090668E-1,-1.1188879E0,-9.0060365E-1,1.0716492E-1,-4.307438E-1,1.1429795E-1,8.496628E-1,2.1687386E0,7.335789E-1,1.2995237E0,5.9331257E-2,1.0728635E-1,-6.888803E-2,-4.3749645E-2,-5.6920875E-2,-3.0126814E-2,-7.6920907E-3,1.477118E-2,-1.369879E-3,-3.384247E-2,-7.1466537E-3,1.6804466E-2,9.628372E-3,4.6411872E-2,1.1786621E-1,3.0645275E-2,1.6451407E-2,3.94434E-2,7.0194796E-2,3.556494E-2],"categories":[],"categories_nodes":[],"categories_segments":[],"categories_sizes":[],"default_left":[0,0,0,0,0,0,0,0,0,0,0,0,0,0,0,0,0,0,0,0,0,0,0,0,0,0,0,0,0,0,0,0,0,0,0,0,0,0,0,0,0,0,0,0,0],"id":30,"left_children":[1,3,5,7,9,11,13,-1,-1,15,17,19,21,23,25,-1,27,29,31,33,35,37,39,41,43,-1,-1,-1,-1,-1,-1,-1,-1,-1,-1,-1,-1,-1,-1,-1,-1,-1,-1,-1,-1],"loss_changes":[3.3662338E2,8.767972E1,5.531151E1,2.9496155E0,4.807419E1,3.1449776E1,1.3989044E1,0E0,0E0,1.5764252E1,1.3370628E1,4.279891E0,7.7976E0,2.6445122E0,4.9499512E-1,0E0,2.014492E0,7.317543E-1,1.9617828E0,2.0660365E0,2.6724126E0,1.6283398E0,3.1562805E-1,1.6541767E-1,1.0274239E0,0E0,0E0,0E0,0E0,0E0,0E0,0E0,0E0,0E0,0E0,0E0,0E0,0E0,0E0,0E0,0E0,0E0,0E0,0E0,0E0],"parents":[2147483647,0,0,1,1,2,2,3,3,4,4,5,5,6,6,9,9,10,10,11,11,12,12,13,13,14,14,16,16,17,17,18,18,19,19,20,20,21,21,22,22,23,23,24,24],"right_children":[2,4,6,8,10,12,14,-1,-1,16,18,20,22,24,26,-1,28,30,32,34,36,38,40,42,44,-1,-1,-1,-1,-1,-1,-1,-1,-1,-1,-1,-1,-1,-1,-1,-1,-1,-1,-1,-1],"split_conditions":[-1.16958454E-1,-1.6785274E0,1.1799765E0,-2.1301286E0,1.1799765E0,7.8157645E-1,8.221445E-1,-2.4129939E-1,-1.3149156E-1,-1.0063324E0,-1.0063324E0,-5.50522E-1,2.126968E0,2.0154299E-1,-6.7484975E-1,-1.090668E-1,-9.980978E-2,-1.4636607E0,-5.936387E-1,-1.3897671E-1,3.5318634E-1,-1.6339825E0,3.7267664E-1,-9.2934084E-1,1.3766722E-2,5.9331257E-2,1.0728635E-1,-6.888803E-2,-4.3749645E-2,-5.6920875E-2,-3.0126814E-2,-7.6920907E-3,1.477118E-2,-1.369879E-3,-3.384247E-2,-7.1466537E-3,1.6804466E-2,9.628372E-3,4.6411872E-2,1.1786621E-1,3.0645275E-2,1.6451407E-2,3.94434E-2,7.0194796E-2,3.556494E-2],"split_indices":[5,5,11,5,11,5,5,0,0,5,5,7,5,5,7,0,7,5,5,0,5,7,0,7,10,0,0,0,0,0,0,0,0,0,0,0,0,0,0,0,0,0,0,0,0],"split_type":[0,0,0,0,0,0,0,0,0,0,0,0,0,0,0,0,0,0,0,0,0,0,0,0,0,0,0,0,0,0,0,0,0,0,0,0,0,0,0,0,0,0,0,0,0],"sum_hessian":[3.25E2,1.41E2,1.84E2,1.2E1,1.29E2,1.04E2,8E1,4E0,8E0,7.2E1,5.7E1,6.5E1,3.9E1,5E1,3E1,2.2E1,5E1,1.9E1,3.8E1,2E1,4.5E1,3.4E1,5E0,1.8E1,3.2E1,5E0,2.5E1,2.2E1,2.8E1,9E0,1E1,1.6E1,2.2E1,8E0,1.2E1,2.1E1,2.4E1,4E0,3E1,4E0,1E0,3E0,1.5E1,2.6E1,6E0],"tree_param":{"num_deleted":"0","num_feature":"14","num_nodes":"45","size_leaf_vector":"1"}},{"base_weights":[-2.9517334E-2,-1.8255264E0,5.327681E-1,-3.4435408E0,-1.4430618E0,-1.4296561E-2,1.1560704E0,-2.2487748E-1,-1.2860912E-1,-1.8849452E0,-6.7832613E-1,-5.408757E-1,5.5364496E-1,6.911102E-1,1.6685048E0,-1.1140058E-1,-1.4684557E0,-8.5841435E-1,-1.8833685E-1,-8.6967677E-1,-1.9662105E-1,3.347608E-1,9.562983E-1,3.59342E-1,1.2380501E0,7.2186336E-2,1.315991E-1,-2.108326E-2,-7.49856E-2,-4.664655E-2,-1.821866E-2,3.2256444E-3,-1.4168613E-2,-5.627804E-2,-3.436173E-2,-1.7355582E-2,1.0715828E-2,1.0986703E-2,2.9165223E-2,5.3753864E-2,2.7409473E-2,-2.1575673E-2,2.061608E-2,4.6110325E-2,9.896196E-2],"categories":[],"categories_nodes":[],"categories_segments":[],"categories_sizes":[],"default_left":[0,0,0,0,0,0,0,0,0,0,0,0,0,0,0,0,0,0,0,0,0,0,0,0,0,0,0,0,0,0,0,0,0,0,0,0,0,0,0,0,0,0,0,0,0],"id":31,"left_children":[1,3,5,7,9,11,13,-1,-1,15,17,19,21,23,25,-1,27,29,31,33,35,37,39,41,43,-1,-1,-1,-1,-1,-1,-1,-1,-1,-1,-1,-1,-1,-1,-1,-1,-1,-1,-1,-1],"loss_changes":[3.261506E2,4.268091E1,8.389925E1,1.2893524E0,2.0348526E1,3.977618E1,2.6246964E1,0E0,0E0,2.4436035E0,2.044361E0,7.639202E0,5.3204746E0,1.0805464E1,7.8948364E0,0E0,5.4714203E-2,3.2272243E-1,2.1051857E-1,8.604164E-1,2.2388701E0,1.1011624E0,4.7709846E-1,1.8538904E0,3.5590286E0,0E0,0E0,0E0,0E0,0E0,0E0,0E0,0E0,0E0,0E0,0E0,0E0,0E0,0E0,0E0,0E0,0E0,0E0,0E0,0E0],"parents":[2147483647,0,0,1,1,2,2,3,3,4,4,5,5,6,6,9,9,10,10,11,11,12,12,13,13,14,14,16,16,17,17,18,18,19,19,20,20,21,21,22,22,23,23,24,24],"right_children":[2,4,6,8,10,12,14,-1,-1,16,18,20,22,24,26,-1,28,30,32,34,36,38,40,42,44,-1,-1,-1,-1,-1,-1,-1,-1,-1,-1,-1,-1,-1,-1,-1,-1,-1,-1,-1,-1],"split_conditions":[-6.561547E-1,-1.6785274E0,4.5810464E-1,-2.1301286E0,1.1799765E0,1.1799765E0,1.1799765E0,-2.2487748E-1,-1.2860912E-1,-5.229985E-1,-9.5043206E-1,-1.5562835E-2,2.1481754E-2,1.1685885E0,1.5390693E0,-1.1140058E-1,-1.2078397E-2,7.6283246E-1,-3.7178406E-1,-1.9193101E-1,6.1669576E-1,6.706054E-1,2.0027025E-2,-5.731795E-1,1.9836956E0,7.2186336E-2,1.315991E-1,-2.108326E-2,-7.49856E-2,-4.664655E-2,-1.821866E-2,3.2256444E-3,-1.4168613E-2,-5.627804E-2,-3.436173E-2,-1.7355582E-2,1.0715828E-2,1.0986703E-2,2.9165223E-2,5.3753864E-2,2.7409473E-2,-2.1575673E-2,2.061608E-2,4.6110325E-2,9.896196E-2],"split_indices":[5,5,5,5,6,6,6,0,0,7,5,5,5,5,5,0,0,8,3,7,7,7,10,10,5,0,0,0,0,0,0,0,0,0,0,0,0,0,0,0,0,0,0,0,0],"split_type":[0,0,0,0,0,0,0,0,0,0,0,0,0,0,0,0,0,0,0,0,0,0,0,0,0,0,0,0,0,0,0,0,0,0,0,0,0,0,0,0,0,0,0,0,0],"sum_hessian":[3.21E2,7.6E1,2.45E2,1.3E1,6.3E1,1.31E2,1.14E2,4E0,9E0,3.9E1,2.4E1,6.8E1,6.3E1,6.1E1,5.3E1,1.9E1,2E1,1.7E1,7E0,3.4E1,3.4E1,4.2E1,2.1E1,3.9E1,2.2E1,4.5E1,8E0,1E0,1.9E1,1.4E1,3E0,2E0,5E0,1.2E1,2.2E1,2.5E1,9E0,3E1,1.2E1,1.5E1,6E0,2E0,3.7E1,1.7E1,5E0],"tree_param":{"num_deleted":"0","num_feature":"14","num_nodes":"45","size_leaf_vector":"1"}},{"base_weights":[-4.8632476E-2,-1.4419985E0,6.014065E-1,-3.4012399E0,-1.1494752E0,1.7110862E-1,1.3392223E0,-2.1830347E-1,-1.1262315E-1,-1.581524E0,-4.3346807E-1,-3.0648604E-1,7.415898E-1,8.8580745E-1,1.866732E0,-2.0037084E0,-1.1890765E0,-8.333919E-1,-1.0812287E-1,-7.720351E-1,-9.7764865E-2,3.8121942E-1,1.0039992E0,6.263319E-1,1.8829477E0,8.2199894E-2,1.4817154E-1,-1.0880456E-1,-6.1247118E-2,-6.41063E-2,-3.3679824E-2,-5.7647463E-2,-2.6318131E-2,-1.8998718E-2,1.2974676E-3,-5.347106E-2,-2.7825166E-2,1.4694547E-3,-2.0476973E-2,9.71625E-3,2.7134959E-2,2.671652E-2,5.4788884E-2,2.0002969E-2,3.9522726E-2,9.906452E-2,2.7405167E-2],"categories":[],"categories_nodes":[],"categories_segments":[],"categories_sizes":[],"default_left":[0,0,0,0,0,0,0,0,0,0,0,0,0,0,0,0,0,0,0,0,0,0,0,0,0,0,0,0,0,0,0,0,0,0,0,0,0,0,0,0,0,0,0,0,0,0,0],"id":32,"left_children":[1,3,5,7,9,11,13,-1,-1,15,17,19,21,23,25,27,29,31,33,35,37,39,41,43,45,-1,-1,-1,-1,-1,-1,-1,-1,-1,-1,-1,-1,-1,-1,-1,-1,-1,-1,-1,-1,-1,-1],"loss_changes":[2.961392E2,5.569522E1,7.056901E1,4.5744476E0,2.7774666E1,3.891643E1,1.7959259E1,0E0,0E0,7.061493E0,4.59397E0,7.503778E0,5.763954E0,1.0722393E1,4.1661987E0,8.248062E-1,6.712456E-1,9.6294594E-1,7.752625E-1,9.431715E-1,2.1924214E0,7.697501E-1,1.0093956E0,1.0949574E0,9.549713E-2,0E0,0E0,0E0,0E0,0E0,0E0,0E0,0E0,0E0,0E0,0E0,0E0,0E0,0E0,0E0,0E0,0E0,0E0,0E0,0E0,0E0,0E0],"parents":[2147483647,0,0,1,1,2,2,3,3,4,4,5,5,6,6,9,9,10,10,11,11,12,12,13,13,14,14,15,15,16,16,17,17,18,18,19,19,20,20,21,21,22,22,23,23,24,24],"right_children":[2,4,6,8,10,12,14,-1,-1,16,18,20,22,24,26,28,30,32,34,36,38,40,42,44,46,-1,-1,-1,-1,-1,-1,-1,-1,-1,-1,-1,-1,-1,-1,-1,-1,-1,-1,-1,-1,-1,-1],"split_conditions":[-5.3170675E-1,-1.6785274E0,6.71838E-1,-2.1301286E0,1.1799765E0,1.1799765E0,1.1799765E0,-2.1830347E-1,-1.1262315E-1,-9.5643044E-1,-1.0063324E0,-1.0303559E-2,2.1481754E-2,1.9836956E0,1.6354284E0,2.3236815E-2,8.9825845E-1,-1.5104467E0,-4.2445529E-1,-5.6814075E-1,1.22963995E-1,1.04075514E-1,-6.386916E-1,1.1382538E0,1.1122324E0,8.2199894E-2,1.4817154E-1,-1.0880456E-1,-6.1247118E-2,-6.41063E-2,-3.3679824E-2,-5.7647463E-2,-2.6318131E-2,-1.8998718E-2,1.2974676E-3,-5.347106E-2,-2.7825166E-2,1.4694547E-3,-2.0476973E-2,9.71625E-3,2.7134959E-2,2.671652E-2,5.4788884E-2,2.0002969E-2,3.9522726E-2,9.906452E-2,2.7405167E-2],"split_indices":[5,5,5,5,6,6,6,0,0,5,5,5,5,5,5,7,7,5,7,7,10,7,7,5,0,0,0,0,0,0,0,0,0,0,0,0,0,0,0,0,0,0,0,0,0,0,0],"split_type":[0,0,0,0,0,0,0,0,0,0,0,0,0,0,0,0,0,0,0,0,0,0,0,0,0,0,0,0,0,0,0,0,0,0,0,0,0,0,0,0,0,0,0,0,0,0,0],"sum_hessian":[3.25E2,1.03E2,2.22E2,1.2E1,9.1E1,1.41E2,8.1E1,5E0,7E0,5.6E1,3.5E1,7.7E1,6.4E1,4.5E1,3.6E1,2.5E1,3.1E1,1.5E1,2E1,2.3E1,5.4E1,2.8E1,3.6E1,3.7E1,8E0,3.2E1,4E0,1.9E1,6E0,2.5E1,6E0,6E0,9E0,6E0,1.4E1,8E0,1.5E1,3.9E1,1.5E1,1.4E1,1.4E1,7E0,2.9E1,1.7E1,2E1,7E0,1E0],"tree_param":{"num_deleted":"0","num_feature":"14","num_nodes":"47","size_leaf_vector":"1"}},{"base_weights":[3.1966507E-2,-6.433039E-1,6.167533E-1,-5.2808946E-1,-2.1919754E0,3.008237E-1,1.1073769E0,-3.6705154E-1,-1.4231591E0,-2.783612E0,-5.2180827E-2,8.1996E-1,-8.082082E-2,1.3987501E0,5.6192E-1,-5.6784296E-1,1.9366855E-2,-5.4353905E-1,-2.0375793E0,-1.5263855E-1,-3.5945415E-2,1.8259495E0,6.183732E-1,-9.4482833E-1,1.4543754E-1,1.530754E0,3.1494427E-2,-1.5923092E-2,7.4523485E-1,-2.2024052E-2,-5.4094415E-2,-2.2680283E-2,1.795662E-2,-3.976164E-2,1.5441196E-2,-6.119761E-2,-1.3236071E-1,1.0388439E-1,3.9886795E-2,1.7177427E-2,8.2018755E-2,-6.291027E-2,-2.4823789E-2,2.1263123E-2,-2.3788465E-2,8.790886E-2,6.028272E-2,5.3735417E-3,-1.8907165E-2,2.7645478E-2,5.34894E-2],"categories":[],"categories_nodes":[],"categories_segments":[],"categories_sizes":[],"default_left":[0,0,0,0,0,0,0,0,0,0,0,0,0,0,0,0,0,0,0,0,0,0,0,0,0,0,0,0,0,0,0,0,0,0,0,0,0,0,0,0,0,0,0,0,0,0,0,0,0,0,0],"id":33,"left_children":[1,3,5,7,9,11,13,15,17,19,-1,21,23,25,27,29,31,33,35,-1,-1,37,39,41,43,45,-1,47,49,-1,-1,-1,-1,-1,-1,-1,-1,-1,-1,-1,-1,-1,-1,-1,-1,-1,-1,-1,-1,-1,-1],"loss_changes":[1.2676129E2,2.5428402E1,2.6327316E1,1.9657246E1,3.8890839E0,2.1067577E1,9.862419E0,9.321737E0,1.0242081E1,1.13974E0,0E0,7.996624E0,1.2257727E1,3.399994E0,2.660046E0,4.6955624E0,6.912294E0,2.3909307E0,2.71212E0,0E0,0E0,1.5443993E-1,1.0390433E1,1.2018757E0,8.893784E0,5.419159E-1,0E0,3.5350978E-1,5.944805E-1,0E0,0E0,0E0,0E0,0E0,0E0,0E0,0E0,0E0,0E0,0E0,0E0,0E0,0E0,0E0,0E0,0E0,0E0,0E0,0E0,0E0,0E0],"parents":[2147483647,0,0,1,1,2,2,3,3,4,4,5,5,6,6,7,7,8,8,9,9,11,11,12,12,13,13,14,14,15,15,16,16,17,17,18,18,21,21,22,22,23,23,24,24,25,25,27,27,28,28],"right_children":[2,4,6,8,10,12,14,16,18,20,-1,22,24,26,28,30,32,34,36,-1,-1,38,40,42,44,46,-1,48,50,-1,-1,-1,-1,-1,-1,-1,-1,-1,-1,-1,-1,-1,-1,-1,-1,-1,-1,-1,-1,-1,-1],"split_conditions":[-2.950175E-1,-3.281112E-1,1.0770526E0,1.698789E-1,-6.269569E-1,3.6192724E-1,1.3092417E0,-1.9341043E-1,-1.0490689E0,8.8066095E-1,-5.2180827E-2,-4.2933482E-1,3.1324208E-1,1.8715221E-2,1.2935293E0,8.8066095E-1,-3.4893918E-1,-1.656108E0,-1.1780803E0,-1.5263855E-1,-3.5945415E-2,3.793875E-1,3.4450266E-1,-5.6477465E-2,1.2710054E0,1.0480285E0,3.1494427E-2,1.6796591E0,1.9547274E0,-2.2024052E-2,-5.4094415E-2,-2.2680283E-2,1.795662E-2,-3.976164E-2,1.5441196E-2,-6.119761E-2,-1.3236071E-1,1.0388439E-1,3.9886795E-2,1.7177427E-2,8.2018755E-2,-6.291027E-2,-2.4823789E-2,2.1263123E-2,-2.3788465E-2,8.790886E-2,6.028272E-2,5.3735417E-3,-1.8907165E-2,2.7645478E-2,5.34894E-2],"split_indices":[8,12,8,10,4,12,12,1,7,3,0,12,8,10,8,3,3,1,2,0,0,7,8,4,12,12,0,2,8,0,0,0,0,0,0,0,0,0,0,0,0,0,0,0,0,0,0,0,0,0,0],"split_type":[0,0,0,0,0,0,0,0,0,0,0,0,0,0,0,0,0,0,0,0,0,0,0,0,0,0,0,0,0,0,0,0,0,0,0,0,0,0,0,0,0,0,0,0,0,0,0,0,0,0,0],"sum_hessian":[3.19E2,1.48E2,1.71E2,1.39E2,9E0,1.05E2,6.6E1,1.19E2,2E1,5E0,4E0,4.4E1,6.1E1,4.2E1,2.4E1,7.8E1,4.1E1,9E0,1.1E1,4E0,1E0,6E0,3.8E1,1.2E1,4.9E1,3.5E1,7E0,6E0,1.8E1,6.4E1,1.4E1,1.7E1,2.4E1,7E0,2E0,6E0,5E0,4E0,2E0,3.1E1,7E0,6E0,6E0,3.4E1,1.5E1,1.8E1,1.7E1,5E0,1E0,1.3E1,5E0],"tree_param":{"num_deleted":"0","num_feature":"14","num_nodes":"51","size_leaf_vector":"1"}},{"base_weights":[2.632705E-2,-1.2736375E0,6.026628E-1,-2.3865793E0,-8.1679237E-1,9.223779E-2,1.0809368E0,-2.0073448E-1,-1.9479488E0,-1.2320515E0,-1.72898E-1,-3.162006E-1,6.290664E-1,6.506376E-1,1.4189466E0,-1.15477145E-1,-1.088676E0,-7.477246E-2,-4.4244956E-2,-4.011042E-1,1.0025896E-1,-9.087254E-1,-1.9843745E-1,3.8037202E-1,8.720356E-1,4.091334E-1,1.1684513E0,9.262107E-1,1.8388214E0,-5.804789E-2,-1.2760544E-2,-2.300918E-2,4.1503907E-4,-2.9880141E-3,8.512135E-3,-5.6769807E-2,-1.4243508E-2,-2.8135648E-2,-4.4817016E-3,9.673195E-3,3.003337E-2,2.7794285E-2,5.1778443E-2,-7.0863725E-3,2.400996E-2,6.1524887E-2,5.9438706E-3,2.5571441E-2,5.3632375E-2,8.0083005E-2,1.4232968E-1],"categories":[],"categories_nodes":[],"categories_segments":[],"categories_sizes":[],"default_left":[0,0,0,0,0,0,0,0,0,0,0,0,0,0,0,0,0,0,0,0,0,0,0,0,0,0,0,0,0,0,0,0,0,0,0,0,0,0,0,0,0,0,0,0,0,0,0,0,0,0,0],"id":34,"left_children":[1,3,5,7,9,11,13,-1,15,17,19,21,23,25,27,-1,29,-1,-1,31,33,35,37,39,41,43,45,47,49,-1,-1,-1,-1,-1,-1,-1,-1,-1,-1,-1,-1,-1,-1,-1,-1,-1,-1,-1,-1,-1,-1],"loss_changes":[2.3901826E2,4.7877975E1,5.385148E1,1.2175476E1,1.877118E1,2.3879145E1,1.5657547E1,0E0,4.942642E0,2.6085587E0,1.8479617E0,4.1458864E0,2.5082817E0,6.024767E0,1.1330765E1,0E0,2.4590969E-1,0E0,0E0,3.9081812E-1,1.6695614E-1,1.0906563E0,2.0501864E0,9.131675E-1,6.1346436E-1,1.51651E0,8.956795E-1,1.3343372E0,3.3278809E0,0E0,0E0,0E0,0E0,0E0,0E0,0E0,0E0,0E0,0E0,0E0,0E0,0E0,0E0,0E0,0E0,0E0,0E0,0E0,0E0,0E0,0E0],"parents":[2147483647,0,0,1,1,2,2,3,3,4,4,5,5,6,6,8,8,9,9,10,10,11,11,12,12,13,13,14,14,16,16,19,19,20,20,21,21,22,22,23,23,24,24,25,25,26,26,27,27,28,28],"right_children":[2,4,6,8,10,12,14,-1,16,18,20,22,24,26,28,-1,30,-1,-1,32,34,36,38,40,42,44,46,48,50,-1,-1,-1,-1,-1,-1,-1,-1,-1,-1,-1,-1,-1,-1,-1,-1,-1,-1,-1,-1,-1,-1],"split_conditions":[-4.2842853E-1,-1.441019E0,4.5167032E-1,-2.2720919E0,1.1799765E0,1.1799765E0,9.578362E-3,-2.0073448E-1,4.733935E-1,-4.6039128E-1,-7.6383555E-1,-1.4321383E0,8.740388E-1,1.4045827E0,8.221445E-1,-1.15477145E-1,1.3577032E0,-7.477246E-2,-4.4244956E-2,1.1953653E0,4.6473664E-1,2.1608315E-1,-1.6500117E-1,9.392855E-2,-1.0669215E-1,-1.5843605E0,1.3015492E0,-3.9717934E-1,1.7354589E0,-5.804789E-2,-1.2760544E-2,-2.300918E-2,4.1503907E-4,-2.9880141E-3,8.512135E-3,-5.6769807E-2,-1.4243508E-2,-2.8135648E-2,-4.4817016E-3,9.673195E-3,3.003337E-2,2.7794285E-2,5.1778443E-2,-7.0863725E-3,2.400996E-2,6.1524887E-2,5.9438706E-3,2.5571441E-2,5.3632375E-2,8.0083005E-2,1.4232968E-1],"split_indices":[5,5,5,5,6,6,1,0,1,1,5,1,1,5,5,0,1,0,0,1,1,5,5,5,5,1,0,2,5,0,0,0,0,0,0,0,0,0,0,0,0,0,0,0,0,0,0,0,0,0,0],"split_type":[0,0,0,0,0,0,0,0,0,0,0,0,0,0,0,0,0,0,0,0,0,0,0,0,0,0,0,0,0,0,0,0,0,0,0,0,0,0,0,0,0,0,0,0,0,0,0,0,0,0,0],"sum_hessian":[3.17E2,9.7E1,2.2E2,2.7E1,7E1,1.07E2,1.13E2,4E0,2.3E1,4.2E1,2.8E1,6.1E1,4.6E1,5.1E1,6.2E1,1.5E1,8E0,2.2E1,2E1,1.5E1,1.3E1,9E0,5.2E1,2.4E1,2.2E1,3.6E1,1.5E1,3E1,3.2E1,7E0,1E0,1.3E1,2E0,4E0,9E0,6E0,3E0,1.1E1,4.1E1,1.4E1,1E1,9E0,1.3E1,4E0,3.2E1,1.4E1,1E0,9E0,2.1E1,2.8E1,4E0],"tree_param":{"num_deleted":"0","num_feature":"14","num_nodes":"51","size_leaf_vector":"1"}},{"base_weights":[-1.7753018E-2,-1.0665046E0,6.1158454E-1,-2.032614E0,-6.5915865E-1,1.9813418E-1,1.127356E0,-1.4240976E-1,-1.5598304E0,-1.0832819E0,-4.5278497E-2,-8.4056415E-2,7.7215344E-1,8.2992786E-1,1.7346188E0,-9.354649E-2,-3.9944205E-2,-7.401974E-2,-8.656652E-1,-3.0129188E-1,1.05949245E-1,-8.308818E-1,5.0957922E-2,-1.5184403E-3,7.94664E-1,4.772083E-1,1.0208113E0,5.6575146E-2,1.04689434E-1,-4.853132E-2,-3.0265061E-2,-1.7675655E-2,4.01179E-4,-4.276191E-3,1.0351551E-2,-5.4336794E-2,-1.969525E-2,-5.647564E-3,1.7466744E-2,2.3567943E-2,4.33799E-2,2.7901998E-2,1.0059139E-2,3.5399593E-2,5.9009172E-2],"categories":[],